[[9.462484686037092, -7.43056167912958, 0.10536801269993781], [9.462484686037092, -7.43056167912958, 0.10536801269993781], [9.462484686037092, -7.43056167912958, 0.10536801269993781], [9.462484686037092, -7.43056167912958, 0.10536801269993781], [10.76703145624567, -5.7673608717427385, 0.20536801269993782], [14.325334284978418, 1.72669678132113, 0.30536801269993785], [14.325334284978418, 1.72669678132113, 0.30536801269993785], [14.325334284978418, 1.72669678132113, 0.30536801269993785], [14.325334284978418, 1.72669678132113, 0.30536801269993785], [14.325334284978418, 1.72669678132113, 0.30536801269993785], [14.325334284978418, 1.72669678132113, 0.30536801269993785], [14.325334284978418, 1.72669678132113, 0.30536801269993785], [14.325334284978418, 1.72669678132113, 0.30536801269993785], [14.325334284978418, 1.72669678132113, 0.30536801269993785], [14.325334284978418, 1.72669678132113, 0.30536801269993785], [14.325334284978418, 1.72669678132113, 0.30536801269993785], [14.325334284978418, 1.72669678132113, 0.30536801269993785], [14.325334284978418, 1.72669678132113, 0.30536801269993785], [14.325334284978418, 1.72669678132113, 0.30536801269993785], [12.221182789220459, -5.233505939939576, 0.20536801269993785], [12.221182789220459, -5.233505939939576, 0.20536801269993785], [12.221182789220459, -5.233505939939576, 0.20536801269993785], [12.221182789220459, -5.233505939939576, 0.20536801269993785], [12.221182789220459, -5.233505939939576, 0.20536801269993785], [12.221182789220459, -5.233505939939576, 0.20536801269993785], [12.221182789220459, -5.233505939939576, 0.20536801269993785], [12.221182789220459, -5.233505939939576, 0.20536801269993785], [12.221182789220459, -5.233505939939576, 0.20536801269993785], [12.221182789220459, -5.233505939939576, 0.20536801269993785], [12.221182789220459, -5.233505939939576, 0.20536801269993785], [12.221182789220459, -5.233505939939576, 0.20536801269993785], [12.221182789220459, -5.233505939939576, 0.20536801269993785], [12.221182789220459, -5.233505939939576, 0.20536801269993785], [12.221182789220459, -5.233505939939576, 0.20536801269993785], [12.221182789220459, -5.233505939939576, 0.20536801269993785], [12.221182789220459, -5.233505939939576, 0.20536801269993785], [12.221182789220459, -5.233505939939576, 0.20536801269993785], [12.221182789220459, -5.233505939939576, 0.20536801269993785], [12.221182789220459, -5.233505939939576, 0.20536801269993785], [12.221182789220459, -5.233505939939576, 0.20536801269993785], [12.221182789220459, -5.233505939939576, 0.20536801269993785], [12.221182789220459, -5.233505939939576, 0.20536801269993785], [12.221182789220459, -5.233505939939576, 0.20536801269993785], [12.221182789220459, -5.233505939939576, 0.20536801269993785], [12.221182789220459, -5.233505939939576, 0.20536801269993785], [12.221182789220459, -5.233505939939576, 0.20536801269993785], [12.221182789220459, -5.233505939939576, 0.20536801269993785], [12.221182789220459, -5.233505939939576, 0.20536801269993785], [12.221182789220459, -5.233505939939576, 0.20536801269993785], [12.221182789220459, -5.233505939939576, 0.20536801269993785], [12.221182789220459, -5.233505939939576, 0.20536801269993785], [12.221182789220459, -5.233505939939576, 0.20536801269993785], [12.221182789220459, -5.233505939939576, 0.20536801269993785], [12.221182789220459, -5.233505939939576, 0.20536801269993785], [12.221182789220459, -5.233505939939576, 0.20536801269993785], [12.221182789220459, -5.233505939939576, 0.20536801269993785], [12.221182789220459, -5.233505939939576, 0.20536801269993785], [12.221182789220459, -5.233505939939576, 0.20536801269993785], [12.221182789220459, -5.233505939939576, 0.20536801269993785], [12.221182789220459, -5.233505939939576, 0.20536801269993785], [12.221182789220459, -5.233505939939576, 0.20536801269993785], [12.221182789220459, -5.233505939939576, 0.20536801269993785], [12.221182789220459, -5.233505939939576, 0.20536801269993785], [12.221182789220459, -5.233505939939576, 0.20536801269993785], [12.221182789220459, -5.233505939939576, 0.20536801269993785], [12.221182789220459, -5.233505939939576, 0.20536801269993785], [12.221182789220459, -5.233505939939576, 0.20536801269993785], [12.221182789220459, -5.233505939939576, 0.20536801269993785], [12.221182789220459, -5.233505939939576, 0.20536801269993785], [12.221182789220459, -5.233505939939576, 0.20536801269993785], [12.221182789220459, -5.233505939939576, 0.20536801269993785], [12.221182789220459, -5.233505939939576, 0.20536801269993785], [12.221182789220459, -5.233505939939576, 0.20536801269993785], [12.221182789220459, -5.233505939939576, 0.20536801269993785], [12.221182789220459, -5.233505939939576, 0.20536801269993785], [12.221182789220459, -5.233505939939576, 0.20536801269993785], [12.221182789220459, -5.233505939939576, 0.20536801269993785], [12.221182789220459, -5.233505939939576, 0.20536801269993785], [12.221182789220459, -5.233505939939576, 0.20536801269993785], [12.221182789220459, -5.233505939939576, 0.20536801269993785], [12.221182789220459, -5.233505939939576, 0.20536801269993785], [12.221182789220459, -5.233505939939576, 0.20536801269993785], [12.221182789220459, -5.233505939939576, 0.20536801269993785], [12.221182789220459, -5.233505939939576, 0.20536801269993785], [12.221182789220459, -5.233505939939576, 0.20536801269993785], [12.221182789220459, -5.233505939939576, 0.20536801269993785], [12.221182789220459, -5.233505939939576, 0.20536801269993785], [12.221182789220459, -5.233505939939576, 0.20536801269993785], [12.221182789220459, -5.233505939939576, 0.20536801269993785], [12.221182789220459, -5.233505939939576, 0.20536801269993785], [12.221182789220459, -5.233505939939576, 0.20536801269993785], [12.221182789220459, -5.233505939939576, 0.20536801269993785], [12.221182789220459, -5.233505939939576, 0.20536801269993785], [12.221182789220459, -5.233505939939576, 0.20536801269993785], [12.221182789220459, -5.233505939939576, 0.20536801269993785], [12.221182789220459, -5.233505939939576, 0.20536801269993785], [12.221182789220459, -5.233505939939576, 0.20536801269993785], [12.221182789220459, -5.233505939939576, 0.20536801269993785], [12.221182789220459, -5.233505939939576, 0.20536801269993785], [12.221182789220459, -5.233505939939576, 0.20536801269993785], [12.221182789220459, -5.233505939939576, 0.20536801269993785], [12.221182789220459, -5.233505939939576, 0.20536801269993785], [12.221182789220459, -5.233505939939576, 0.20536801269993785], [12.221182789220459, -5.233505939939576, 0.20536801269993785], [12.221182789220459, -5.233505939939576, 0.20536801269993785], [12.221182789220459, -5.233505939939576, 0.20536801269993785], [12.221182789220459, -5.233505939939576, 0.20536801269993785], [12.221182789220459, -5.233505939939576, 0.20536801269993785], [12.221182789220459, -5.233505939939576, 0.20536801269993785], [12.221182789220459, -5.233505939939576, 0.20536801269993785], [14.150581139832951, -0.6860234341138378, 0.30536801269993785], [14.150581139832951, -0.6860234341138378, 0.30536801269993785], [14.150581139832951, -0.6860234341138378, 0.30536801269993785], [14.150581139832951, -0.6860234341138378, 0.30536801269993785], [14.150581139832951, -0.6860234341138378, 0.30536801269993785], [14.150581139832951, -0.6860234341138378, 0.30536801269993785], [14.150581139832951, -0.6860234341138378, 0.30536801269993785], [14.150581139832951, -0.6860234341138378, 0.30536801269993785], [14.150581139832951, -0.6860234341138378, 0.30536801269993785], [14.150581139832951, -0.6860234341138378, 0.30536801269993785], [14.150581139832951, -0.6860234341138378, 0.30536801269993785], [14.150581139832951, -0.6860234341138378, 0.30536801269993785], [14.150581139832951, -0.6860234341138378, 0.30536801269993785], [14.150581139832951, -0.6860234341138378, 0.30536801269993785], [14.150581139832951, -0.6860234341138378, 0.30536801269993785], [13.050594334053468, -9.331541204537224, 0.20536801269993785], [13.050594334053468, -9.331541204537224, 0.20536801269993785], [13.050594334053468, -9.331541204537224, 0.20536801269993785], [13.050594334053468, -9.331541204537224, 0.20536801269993785], [13.050594334053468, -9.331541204537224, 0.20536801269993785], [13.050594334053468, -9.331541204537224, 0.20536801269993785], [13.050594334053468, -9.331541204537224, 0.20536801269993785], [18.700768249248277, 0.24638260500394615, 0.30536801269993785], [18.700768249248277, 0.24638260500394615, 0.30536801269993785], [18.700768249248277, 0.24638260500394615, 0.30536801269993785], [18.700768249248277, 0.24638260500394615, 0.30536801269993785], [18.700768249248277, 0.24638260500394615, 0.30536801269993785], [18.700768249248277, 0.24638260500394615, 0.30536801269993785], [18.700768249248277, 0.24638260500394615, 0.30536801269993785], [18.700768249248277, 0.24638260500394615, 0.30536801269993785], [18.700768249248277, 0.24638260500394615, 0.30536801269993785], [18.700768249248277, 0.24638260500394615, 0.30536801269993785], [18.700768249248277, 0.24638260500394615, 0.30536801269993785], [14.741723057232859, -9.150479703018597, 0.40536801269993783], [14.741723057232859, -9.150479703018597, 0.40536801269993783], [14.741723057232859, -9.150479703018597, 0.40536801269993783], [14.741723057232859, -9.150479703018597, 0.40536801269993783], [14.741723057232859, -9.150479703018597, 0.40536801269993783], [14.741723057232859, -9.150479703018597, 0.40536801269993783], [14.741723057232859, -9.150479703018597, 0.40536801269993783], [14.741723057232859, -9.150479703018597, 0.40536801269993783], [14.741723057232859, -9.150479703018597, 0.40536801269993783], [14.741723057232859, -9.150479703018597, 0.40536801269993783], [14.741723057232859, -9.150479703018597, 0.40536801269993783], [14.741723057232859, -9.150479703018597, 0.40536801269993783], [14.741723057232859, -9.150479703018597, 0.40536801269993783], [14.741723057232859, -9.150479703018597, 0.40536801269993783], [14.741723057232859, -9.150479703018597, 0.40536801269993783], [14.741723057232859, -9.150479703018597, 0.40536801269993783], [14.741723057232859, -9.150479703018597, 0.40536801269993783], [14.741723057232859, -9.150479703018597, 0.40536801269993783], [14.741723057232859, -9.150479703018597, 0.40536801269993783], [14.741723057232859, -9.150479703018597, 0.40536801269993783], [14.741723057232859, -9.150479703018597, 0.40536801269993783], [14.741723057232859, -9.150479703018597, 0.40536801269993783], [14.741723057232859, -9.150479703018597, 0.40536801269993783], [14.741723057232859, -9.150479703018597, 0.40536801269993783], [19.624580314164945, -0.7767541197226997, 0.30536801269993785], [19.624580314164945, -0.7767541197226997, 0.30536801269993785], [19.624580314164945, -0.7767541197226997, 0.30536801269993785], [19.624580314164945, -0.7767541197226997, 0.30536801269993785], [19.624580314164945, -0.7767541197226997, 0.30536801269993785], [19.624580314164945, -0.7767541197226997, 0.30536801269993785], [19.624580314164945, -0.7767541197226997, 0.30536801269993785], [19.624580314164945, -0.7767541197226997, 0.30536801269993785], [19.624580314164945, -0.7767541197226997, 0.30536801269993785], [19.624580314164945, -0.7767541197226997, 0.30536801269993785], [19.624580314164945, -0.7767541197226997, 0.30536801269993785], [19.624580314164945, -0.7767541197226997, 0.30536801269993785], [19.624580314164945, -0.7767541197226997, 0.30536801269993785], [19.624580314164945, -0.7767541197226997, 0.30536801269993785], [19.624580314164945, -0.7767541197226997, 0.30536801269993785], [18.281170213666833, -5.008556179448768, 0.40536801269993783], [18.281170213666833, -5.008556179448768, 0.40536801269993783], [18.281170213666833, -5.008556179448768, 0.40536801269993783], [18.281170213666833, -5.008556179448768, 0.40536801269993783], [18.281170213666833, -5.008556179448768, 0.40536801269993783], [18.281170213666833, -5.008556179448768, 0.40536801269993783], [18.281170213666833, -5.008556179448768, 0.40536801269993783], [18.281170213666833, -5.008556179448768, 0.40536801269993783], [18.281170213666833, -5.008556179448768, 0.40536801269993783], [18.281170213666833, -5.008556179448768, 0.40536801269993783], [18.281170213666833, -5.008556179448768, 0.40536801269993783], [18.281170213666833, -5.008556179448768, 0.40536801269993783], [18.281170213666833, -5.008556179448768, 0.40536801269993783], [18.281170213666833, -5.008556179448768, 0.40536801269993783], [18.281170213666833, -5.008556179448768, 0.40536801269993783], [18.281170213666833, -5.008556179448768, 0.40536801269993783], [18.281170213666833, -5.008556179448768, 0.40536801269993783], [18.281170213666833, -5.008556179448768, 0.40536801269993783], [18.281170213666833, -5.008556179448768, 0.40536801269993783], [18.281170213666833, -5.008556179448768, 0.40536801269993783], [18.281170213666833, -5.008556179448768, 0.40536801269993783], [18.281170213666833, -5.008556179448768, 0.40536801269993783], [18.281170213666833, -5.008556179448768, 0.40536801269993783], [18.281170213666833, -5.008556179448768, 0.40536801269993783], [18.281170213666833, -5.008556179448768, 0.40536801269993783], [16.669325204305473, -10.625402228155615, 0.5053680126999378], [16.669325204305473, -10.625402228155615, 0.5053680126999378], [16.669325204305473, -10.625402228155615, 0.5053680126999378], [16.669325204305473, -10.625402228155615, 0.5053680126999378], [16.669325204305473, -10.625402228155615, 0.5053680126999378], [16.669325204305473, -10.625402228155615, 0.5053680126999378], [16.669325204305473, -10.625402228155615, 0.5053680126999378], [16.669325204305473, -10.625402228155615, 0.5053680126999378], [16.669325204305473, -10.625402228155615, 0.5053680126999378], [16.669325204305473, -10.625402228155615, 0.5053680126999378], [16.669325204305473, -10.625402228155615, 0.5053680126999378], [16.669325204305473, -10.625402228155615, 0.5053680126999378], [16.669325204305473, -10.625402228155615, 0.5053680126999378], [16.669325204305473, -10.625402228155615, 0.5053680126999378], [16.669325204305473, -10.625402228155615, 0.5053680126999378], [16.669325204305473, -10.625402228155615, 0.5053680126999378], [20.475248557484463, -3.382522410447045, 0.6053680126999378], [20.475248557484463, -3.382522410447045, 0.6053680126999378], [20.475248557484463, -3.382522410447045, 0.6053680126999378], [20.475248557484463, -3.382522410447045, 0.6053680126999378], [20.475248557484463, -3.382522410447045, 0.6053680126999378], [20.475248557484463, -3.382522410447045, 0.6053680126999378], [20.475248557484463, -3.382522410447045, 0.6053680126999378], [20.475248557484463, -3.382522410447045, 0.6053680126999378], [20.475248557484463, -3.382522410447045, 0.6053680126999378], [20.475248557484463, -3.382522410447045, 0.6053680126999378], [20.475248557484463, -3.382522410447045, 0.6053680126999378], [20.475248557484463, -3.382522410447045, 0.6053680126999378], [20.475248557484463, -3.382522410447045, 0.6053680126999378], [20.475248557484463, -3.382522410447045, 0.6053680126999378], [18.689694693710727, -11.668019868155177, 0.7053680126999378], [18.689694693710727, -11.668019868155177, 0.7053680126999378], [18.689694693710727, -11.668019868155177, 0.7053680126999378], [18.689694693710727, -11.668019868155177, 0.7053680126999378], [18.689694693710727, -11.668019868155177, 0.7053680126999378], [18.689694693710727, -11.668019868155177, 0.7053680126999378], [18.689694693710727, -11.668019868155177, 0.7053680126999378], [18.689694693710727, -11.668019868155177, 0.7053680126999378], [18.689694693710727, -11.668019868155177, 0.7053680126999378], [18.689694693710727, -11.668019868155177, 0.7053680126999378], [18.689694693710727, -11.668019868155177, 0.7053680126999378], [18.689694693710727, -11.668019868155177, 0.7053680126999378], [18.689694693710727, -11.668019868155177, 0.7053680126999378], [18.689694693710727, -11.668019868155177, 0.7053680126999378], [18.689694693710727, -11.668019868155177, 0.7053680126999378], [18.689694693710727, -11.668019868155177, 0.7053680126999378], [18.689694693710727, -11.668019868155177, 0.7053680126999378], [18.689694693710727, -11.668019868155177, 0.7053680126999378], [18.689694693710727, -11.668019868155177, 0.7053680126999378], [18.689694693710727, -11.668019868155177, 0.7053680126999378], [18.689694693710727, -11.668019868155177, 0.7053680126999378], [18.689694693710727, -11.668019868155177, 0.7053680126999378], [18.689694693710727, -11.668019868155177, 0.7053680126999378], [18.689694693710727, -11.668019868155177, 0.7053680126999378], [18.689694693710727, -11.668019868155177, 0.7053680126999378], [18.689694693710727, -11.668019868155177, 0.7053680126999378], [18.689694693710727, -11.668019868155177, 0.7053680126999378], [18.689694693710727, -11.668019868155177, 0.7053680126999378], [18.689694693710727, -11.668019868155177, 0.7053680126999378], [18.689694693710727, -11.668019868155177, 0.7053680126999378], [18.689694693710727, -11.668019868155177, 0.7053680126999378], [18.689694693710727, -11.668019868155177, 0.7053680126999378], [18.689694693710727, -11.668019868155177, 0.7053680126999378], [18.689694693710727, -11.668019868155177, 0.7053680126999378], [18.689694693710727, -11.668019868155177, 0.7053680126999378], [18.689694693710727, -11.668019868155177, 0.7053680126999378], [18.689694693710727, -11.668019868155177, 0.7053680126999378], [18.689694693710727, -11.668019868155177, 0.7053680126999378], [18.689694693710727, -11.668019868155177, 0.7053680126999378], [18.689694693710727, -11.668019868155177, 0.7053680126999378], [18.689694693710727, -11.668019868155177, 0.7053680126999378], [18.689694693710727, -11.668019868155177, 0.7053680126999378], [18.689694693710727, -11.668019868155177, 0.7053680126999378], [18.689694693710727, -11.668019868155177, 0.7053680126999378], [18.689694693710727, -11.668019868155177, 0.7053680126999378], [18.689694693710727, -11.668019868155177, 0.7053680126999378], [18.689694693710727, -11.668019868155177, 0.7053680126999378], [18.689694693710727, -11.668019868155177, 0.7053680126999378], [18.689694693710727, -11.668019868155177, 0.7053680126999378], [18.689694693710727, -11.668019868155177, 0.7053680126999378], [18.689694693710727, -11.668019868155177, 0.7053680126999378], [23.298677838750347, -2.340083454375927, 0.6053680126999378], [23.298677838750347, -2.340083454375927, 0.6053680126999378], [23.298677838750347, -2.340083454375927, 0.6053680126999378], [23.298677838750347, -2.340083454375927, 0.6053680126999378], [23.298677838750347, -2.340083454375927, 0.6053680126999378], [23.298677838750347, -2.340083454375927, 0.6053680126999378], [23.298677838750347, -2.340083454375927, 0.6053680126999378], [23.298677838750347, -2.340083454375927, 0.6053680126999378], [23.298677838750347, -2.340083454375927, 0.6053680126999378], [23.298677838750347, -2.340083454375927, 0.6053680126999378], [23.298677838750347, -2.340083454375927, 0.6053680126999378], [23.298677838750347, -2.340083454375927, 0.6053680126999378], [23.298677838750347, -2.340083454375927, 0.6053680126999378], [21.939266667277668, -8.401209515537598, 0.5053680126999378], [21.939266667277668, -8.401209515537598, 0.5053680126999378], [21.939266667277668, -8.401209515537598, 0.5053680126999378], [21.939266667277668, -8.401209515537598, 0.5053680126999378], [21.939266667277668, -8.401209515537598, 0.5053680126999378], [21.939266667277668, -8.401209515537598, 0.5053680126999378], [21.939266667277668, -8.401209515537598, 0.5053680126999378], [21.939266667277668, -8.401209515537598, 0.5053680126999378], [21.939266667277668, -8.401209515537598, 0.5053680126999378], [21.939266667277668, -8.401209515537598, 0.5053680126999378], [21.939266667277668, -8.401209515537598, 0.5053680126999378], [21.939266667277668, -8.401209515537598, 0.5053680126999378], [21.939266667277668, -8.401209515537598, 0.5053680126999378], [21.939266667277668, -8.401209515537598, 0.5053680126999378], [21.939266667277668, -8.401209515537598, 0.5053680126999378], [21.939266667277668, -8.401209515537598, 0.5053680126999378], [21.939266667277668, -8.401209515537598, 0.5053680126999378], [21.939266667277668, -8.401209515537598, 0.5053680126999378], [21.939266667277668, -8.401209515537598, 0.5053680126999378], [21.939266667277668, -8.401209515537598, 0.5053680126999378], [21.939266667277668, -8.401209515537598, 0.5053680126999378], [21.939266667277668, -8.401209515537598, 0.5053680126999378], [21.939266667277668, -8.401209515537598, 0.5053680126999378], [21.939266667277668, -8.401209515537598, 0.5053680126999378], [21.939266667277668, -8.401209515537598, 0.5053680126999378], [21.939266667277668, -8.401209515537598, 0.5053680126999378], [21.939266667277668, -8.401209515537598, 0.5053680126999378], [21.939266667277668, -8.401209515537598, 0.5053680126999378], [21.939266667277668, -8.401209515537598, 0.5053680126999378], [21.939266667277668, -8.401209515537598, 0.5053680126999378], [21.939266667277668, -8.401209515537598, 0.5053680126999378], [21.939266667277668, -8.401209515537598, 0.5053680126999378], [21.939266667277668, -8.401209515537598, 0.5053680126999378], [21.939266667277668, -8.401209515537598, 0.5053680126999378], [21.939266667277668, -8.401209515537598, 0.5053680126999378], [21.939266667277668, -8.401209515537598, 0.5053680126999378], [21.939266667277668, -8.401209515537598, 0.5053680126999378], [21.939266667277668, -8.401209515537598, 0.5053680126999378], [21.939266667277668, -8.401209515537598, 0.5053680126999378], [21.939266667277668, -8.401209515537598, 0.5053680126999378], [21.939266667277668, -8.401209515537598, 0.5053680126999378], [21.939266667277668, -8.401209515537598, 0.5053680126999378], [21.939266667277668, -8.401209515537598, 0.5053680126999378], [21.939266667277668, -8.401209515537598, 0.5053680126999378], [21.939266667277668, -8.401209515537598, 0.5053680126999378], [21.939266667277668, -8.401209515537598, 0.5053680126999378], [21.939266667277668, -8.401209515537598, 0.5053680126999378], [21.939266667277668, -8.401209515537598, 0.5053680126999378], [21.939266667277668, -8.401209515537598, 0.5053680126999378], [21.939266667277668, -8.401209515537598, 0.5053680126999378], [21.939266667277668, -8.401209515537598, 0.5053680126999378], [21.939266667277668, -8.401209515537598, 0.5053680126999378], [21.939266667277668, -8.401209515537598, 0.5053680126999378], [21.939266667277668, -8.401209515537598, 0.5053680126999378], [21.939266667277668, -8.401209515537598, 0.5053680126999378], [21.939266667277668, -8.401209515537598, 0.5053680126999378], [21.939266667277668, -8.401209515537598, 0.5053680126999378], [21.939266667277668, -8.401209515537598, 0.5053680126999378], [21.939266667277668, -8.401209515537598, 0.5053680126999378], [21.939266667277668, -8.401209515537598, 0.5053680126999378], [21.939266667277668, -8.401209515537598, 0.5053680126999378], [21.939266667277668, -8.401209515537598, 0.5053680126999378], [21.939266667277668, -8.401209515537598, 0.5053680126999378], [21.939266667277668, -8.401209515537598, 0.5053680126999378], [21.939266667277668, -8.401209515537598, 0.5053680126999378], [21.939266667277668, -8.401209515537598, 0.5053680126999378], [21.939266667277668, -8.401209515537598, 0.5053680126999378], [21.939266667277668, -8.401209515537598, 0.5053680126999378], [21.939266667277668, -8.401209515537598, 0.5053680126999378], [21.939266667277668, -8.401209515537598, 0.5053680126999378], [21.939266667277668, -8.401209515537598, 0.5053680126999378], [21.939266667277668, -8.401209515537598, 0.5053680126999378], [21.939266667277668, -8.401209515537598, 0.5053680126999378], [21.939266667277668, -8.401209515537598, 0.5053680126999378], [21.939266667277668, -8.401209515537598, 0.5053680126999378], [21.939266667277668, -8.401209515537598, 0.5053680126999378], [21.939266667277668, -8.401209515537598, 0.5053680126999378], [21.939266667277668, -8.401209515537598, 0.5053680126999378], [21.939266667277668, -8.401209515537598, 0.5053680126999378], [21.939266667277668, -8.401209515537598, 0.5053680126999378], [21.939266667277668, -8.401209515537598, 0.5053680126999378], [21.939266667277668, -8.401209515537598, 0.5053680126999378], [21.939266667277668, -8.401209515537598, 0.5053680126999378], [21.939266667277668, -8.401209515537598, 0.5053680126999378], [21.939266667277668, -8.401209515537598, 0.5053680126999378], [21.939266667277668, -8.401209515537598, 0.5053680126999378], [21.939266667277668, -8.401209515537598, 0.5053680126999378], [21.939266667277668, -8.401209515537598, 0.5053680126999378], [21.939266667277668, -8.401209515537598, 0.5053680126999378], [21.939266667277668, -8.401209515537598, 0.5053680126999378], [21.939266667277668, -8.401209515537598, 0.5053680126999378], [21.939266667277668, -8.401209515537598, 0.5053680126999378], [21.939266667277668, -8.401209515537598, 0.5053680126999378], [21.939266667277668, -8.401209515537598, 0.5053680126999378], [21.939266667277668, -8.401209515537598, 0.5053680126999378], [21.939266667277668, -8.401209515537598, 0.5053680126999378], [21.939266667277668, -8.401209515537598, 0.5053680126999378], [21.939266667277668, -8.401209515537598, 0.5053680126999378], [21.939266667277668, -8.401209515537598, 0.5053680126999378]]