[[0.48391590735660306, -0.5497496017064891, 0.04904824484986303], [0.48391590735660306, -0.5497496017064891, 0.04904824484986303], [0.48391590735660306, -0.5497496017064891, 0.04904824484986303], [4.680006118817442, 3.5414763117726276, -0.050951755150136974], [9.263827129469195, -4.827337319225065, -0.15095175515013698], [9.263827129469195, -4.827337319225065, -0.15095175515013698], [9.263827129469195, -4.827337319225065, -0.15095175515013698], [9.263827129469195, -4.827337319225065, -0.15095175515013698], [9.263827129469195, -4.827337319225065, -0.15095175515013698], [9.263827129469195, -4.827337319225065, -0.15095175515013698], [10.56594758815834, -2.304895652490018, -0.050951755150136974], [10.56594758815834, -2.304895652490018, -0.050951755150136974], [10.56594758815834, -2.304895652490018, -0.050951755150136974], [10.56594758815834, -2.304895652490018, -0.050951755150136974], [10.56594758815834, -2.304895652490018, -0.050951755150136974], [10.56594758815834, -2.304895652490018, -0.050951755150136974], [10.56594758815834, -2.304895652490018, -0.050951755150136974], [10.56594758815834, -2.304895652490018, -0.050951755150136974], [10.56594758815834, -2.304895652490018, -0.050951755150136974], [10.56594758815834, -2.304895652490018, -0.050951755150136974], [10.56594758815834, -2.304895652490018, -0.050951755150136974], [10.56594758815834, -2.304895652490018, -0.050951755150136974], [10.56594758815834, -2.304895652490018, -0.050951755150136974], [10.56594758815834, -2.304895652490018, -0.050951755150136974], [7.74499824936632, -12.269039908555172, -0.15095175515013698], [7.74499824936632, -12.269039908555172, -0.15095175515013698], [14.303093735124747, -5.69362924148979, -0.050951755150136974], [14.303093735124747, -5.69362924148979, -0.050951755150136974], [14.303093735124747, -5.69362924148979, -0.050951755150136974], [14.303093735124747, -5.69362924148979, -0.050951755150136974], [14.303093735124747, -5.69362924148979, -0.050951755150136974], [14.303093735124747, -5.69362924148979, -0.050951755150136974], [14.303093735124747, -5.69362924148979, -0.050951755150136974], [14.303093735124747, -5.69362924148979, -0.050951755150136974], [14.303093735124747, -5.69362924148979, -0.050951755150136974], [14.303093735124747, -5.69362924148979, -0.050951755150136974], [10.146215133902903, -15.550377290178293, 0.04904824484986303], [10.146215133902903, -15.550377290178293, 0.04904824484986303], [10.146215133902903, -15.550377290178293, 0.04904824484986303], [10.146215133902903, -15.550377290178293, 0.04904824484986303], [15.337291128038764, -12.079937140851271, -0.050951755150136974], [15.337291128038764, -12.079937140851271, -0.050951755150136974], [15.337291128038764, -12.079937140851271, -0.050951755150136974], [15.337291128038764, -12.079937140851271, -0.050951755150136974], [19.946505591478356, -3.6955845992929586, 0.04904824484986303], [19.946505591478356, -3.6955845992929586, 0.04904824484986303], [19.946505591478356, -3.6955845992929586, 0.04904824484986303], [19.946505591478356, -3.6955845992929586, 0.04904824484986303], [19.946505591478356, -3.6955845992929586, 0.04904824484986303], [19.946505591478356, -3.6955845992929586, 0.04904824484986303], [19.946505591478356, -3.6955845992929586, 0.04904824484986303], [16.67795182459568, -12.294464177684835, 0.14904824484986304], [18.527518760119396, -9.333585988989789, 0.24904824484986304], [18.527518760119396, -9.333585988989789, 0.24904824484986304], [18.527518760119396, -9.333585988989789, 0.24904824484986304], [18.527518760119396, -9.333585988989789, 0.24904824484986304], [19.756082341931947, -6.742339027550246, 0.3490482448498631], [19.756082341931947, -6.742339027550246, 0.3490482448498631], [19.756082341931947, -6.742339027550246, 0.3490482448498631], [19.756082341931947, -6.742339027550246, 0.3490482448498631], [19.756082341931947, -6.742339027550246, 0.3490482448498631], [19.756082341931947, -6.742339027550246, 0.3490482448498631], [19.756082341931947, -6.742339027550246, 0.3490482448498631], [19.756082341931947, -6.742339027550246, 0.3490482448498631], [19.756082341931947, -6.742339027550246, 0.3490482448498631], [19.756082341931947, -6.742339027550246, 0.3490482448498631], [19.756082341931947, -6.742339027550246, 0.3490482448498631], [19.756082341931947, -6.742339027550246, 0.3490482448498631], [19.756082341931947, -6.742339027550246, 0.3490482448498631], [19.756082341931947, -6.742339027550246, 0.3490482448498631], [19.756082341931947, -6.742339027550246, 0.3490482448498631], [19.756082341931947, -6.742339027550246, 0.3490482448498631], [19.756082341931947, -6.742339027550246, 0.3490482448498631], [19.756082341931947, -6.742339027550246, 0.3490482448498631], [19.756082341931947, -6.742339027550246, 0.3490482448498631], [19.756082341931947, -6.742339027550246, 0.3490482448498631], [19.756082341931947, -6.742339027550246, 0.3490482448498631], [19.756082341931947, -6.742339027550246, 0.3490482448498631], [19.756082341931947, -6.742339027550246, 0.3490482448498631], [19.756082341931947, -6.742339027550246, 0.3490482448498631], [19.756082341931947, -6.742339027550246, 0.3490482448498631], [19.756082341931947, -6.742339027550246, 0.3490482448498631], [19.756082341931947, -6.742339027550246, 0.3490482448498631], [19.756082341931947, -6.742339027550246, 0.3490482448498631], [19.756082341931947, -6.742339027550246, 0.3490482448498631], [19.756082341931947, -6.742339027550246, 0.3490482448498631], [19.756082341931947, -6.742339027550246, 0.3490482448498631], [19.756082341931947, -6.742339027550246, 0.3490482448498631], [19.756082341931947, -6.742339027550246, 0.3490482448498631], [19.756082341931947, -6.742339027550246, 0.3490482448498631], [19.756082341931947, -6.742339027550246, 0.3490482448498631], [19.756082341931947, -6.742339027550246, 0.3490482448498631], [19.756082341931947, -6.742339027550246, 0.3490482448498631], [19.756082341931947, -6.742339027550246, 0.3490482448498631], [19.756082341931947, -6.742339027550246, 0.3490482448498631], [19.756082341931947, -6.742339027550246, 0.3490482448498631], [19.756082341931947, -6.742339027550246, 0.3490482448498631], [19.756082341931947, -6.742339027550246, 0.3490482448498631], [19.756082341931947, -6.742339027550246, 0.3490482448498631], [19.756082341931947, -6.742339027550246, 0.3490482448498631], [19.756082341931947, -6.742339027550246, 0.3490482448498631], [19.756082341931947, -6.742339027550246, 0.3490482448498631], [19.756082341931947, -6.742339027550246, 0.3490482448498631], [19.756082341931947, -6.742339027550246, 0.3490482448498631], [19.756082341931947, -6.742339027550246, 0.3490482448498631], [19.756082341931947, -6.742339027550246, 0.3490482448498631], [19.041966438994802, -8.794460479743549, 0.24904824484986307], [19.041966438994802, -8.794460479743549, 0.24904824484986307], [19.041966438994802, -8.794460479743549, 0.24904824484986307], [19.041966438994802, -8.794460479743549, 0.24904824484986307], [19.041966438994802, -8.794460479743549, 0.24904824484986307], [19.041966438994802, -8.794460479743549, 0.24904824484986307], [19.041966438994802, -8.794460479743549, 0.24904824484986307], [19.041966438994802, -8.794460479743549, 0.24904824484986307], [19.041966438994802, -8.794460479743549, 0.24904824484986307], [19.041966438994802, -8.794460479743549, 0.24904824484986307], [19.041966438994802, -8.794460479743549, 0.24904824484986307], [19.041966438994802, -8.794460479743549, 0.24904824484986307], [19.041966438994802, -8.794460479743549, 0.24904824484986307], [19.041966438994802, -8.794460479743549, 0.24904824484986307], [19.041966438994802, -8.794460479743549, 0.24904824484986307], [19.041966438994802, -8.794460479743549, 0.24904824484986307], [19.041966438994802, -8.794460479743549, 0.24904824484986307], [19.041966438994802, -8.794460479743549, 0.24904824484986307], [19.041966438994802, -8.794460479743549, 0.24904824484986307], [19.041966438994802, -8.794460479743549, 0.24904824484986307], [19.041966438994802, -8.794460479743549, 0.24904824484986307], [19.041966438994802, -8.794460479743549, 0.24904824484986307], [19.041966438994802, -8.794460479743549, 0.24904824484986307], [19.041966438994802, -8.794460479743549, 0.24904824484986307], [19.041966438994802, -8.794460479743549, 0.24904824484986307], [19.041966438994802, -8.794460479743549, 0.24904824484986307], [19.041966438994802, -8.794460479743549, 0.24904824484986307], [19.041966438994802, -8.794460479743549, 0.24904824484986307], [19.041966438994802, -8.794460479743549, 0.24904824484986307], [19.041966438994802, -8.794460479743549, 0.24904824484986307], [19.041966438994802, -8.794460479743549, 0.24904824484986307], [19.041966438994802, -8.794460479743549, 0.24904824484986307], [19.041966438994802, -8.794460479743549, 0.24904824484986307], [19.041966438994802, -8.794460479743549, 0.24904824484986307], [19.041966438994802, -8.794460479743549, 0.24904824484986307], [19.041966438994802, -8.794460479743549, 0.24904824484986307], [19.041966438994802, -8.794460479743549, 0.24904824484986307], [19.041966438994802, -8.794460479743549, 0.24904824484986307], [19.041966438994802, -8.794460479743549, 0.24904824484986307], [19.041966438994802, -8.794460479743549, 0.24904824484986307], [19.041966438994802, -8.794460479743549, 0.24904824484986307], [19.041966438994802, -8.794460479743549, 0.24904824484986307], [19.041966438994802, -8.794460479743549, 0.24904824484986307], [19.041966438994802, -8.794460479743549, 0.24904824484986307], [19.041966438994802, -8.794460479743549, 0.24904824484986307], [19.041966438994802, -8.794460479743549, 0.24904824484986307], [19.041966438994802, -8.794460479743549, 0.24904824484986307], [19.041966438994802, -8.794460479743549, 0.24904824484986307], [19.041966438994802, -8.794460479743549, 0.24904824484986307], [19.041966438994802, -8.794460479743549, 0.24904824484986307], [19.041966438994802, -8.794460479743549, 0.24904824484986307], [19.041966438994802, -8.794460479743549, 0.24904824484986307], [19.041966438994802, -8.794460479743549, 0.24904824484986307], [19.041966438994802, -8.794460479743549, 0.24904824484986307], [19.041966438994802, -8.794460479743549, 0.24904824484986307], [19.041966438994802, -8.794460479743549, 0.24904824484986307], [19.041966438994802, -8.794460479743549, 0.24904824484986307], [19.041966438994802, -8.794460479743549, 0.24904824484986307], [19.041966438994802, -8.794460479743549, 0.24904824484986307], [19.041966438994802, -8.794460479743549, 0.24904824484986307], [19.041966438994802, -8.794460479743549, 0.24904824484986307], [19.041966438994802, -8.794460479743549, 0.24904824484986307], [19.041966438994802, -8.794460479743549, 0.24904824484986307], [19.041966438994802, -8.794460479743549, 0.24904824484986307], [19.041966438994802, -8.794460479743549, 0.24904824484986307], [19.041966438994802, -8.794460479743549, 0.24904824484986307], [19.041966438994802, -8.794460479743549, 0.24904824484986307], [19.041966438994802, -8.794460479743549, 0.24904824484986307], [19.041966438994802, -8.794460479743549, 0.24904824484986307], [19.041966438994802, -8.794460479743549, 0.24904824484986307], [19.041966438994802, -8.794460479743549, 0.24904824484986307], [19.041966438994802, -8.794460479743549, 0.24904824484986307], [19.041966438994802, -8.794460479743549, 0.24904824484986307], [19.041966438994802, -8.794460479743549, 0.24904824484986307], [19.041966438994802, -8.794460479743549, 0.24904824484986307], [21.496888106224763, -3.370026413052285, 0.14904824484986307], [21.496888106224763, -3.370026413052285, 0.14904824484986307], [21.496888106224763, -3.370026413052285, 0.14904824484986307], [21.496888106224763, -3.370026413052285, 0.14904824484986307], [21.496888106224763, -3.370026413052285, 0.14904824484986307], [21.496888106224763, -3.370026413052285, 0.14904824484986307], [21.496888106224763, -3.370026413052285, 0.14904824484986307], [21.496888106224763, -3.370026413052285, 0.14904824484986307], [21.496888106224763, -3.370026413052285, 0.14904824484986307], [21.496888106224763, -3.370026413052285, 0.14904824484986307], [21.496888106224763, -3.370026413052285, 0.14904824484986307], [21.496888106224763, -3.370026413052285, 0.14904824484986307], [21.496888106224763, -3.370026413052285, 0.14904824484986307], [21.496888106224763, -3.370026413052285, 0.14904824484986307], [21.496888106224763, -3.370026413052285, 0.14904824484986307], [21.496888106224763, -3.370026413052285, 0.14904824484986307], [21.496888106224763, -3.370026413052285, 0.14904824484986307], [21.496888106224763, -3.370026413052285, 0.14904824484986307], [21.496888106224763, -3.370026413052285, 0.14904824484986307], [19.287387905939106, -11.477835706792114, 0.04904824484986306], [23.18756837260313, -3.6734089123772584, 0.14904824484986307], [23.18756837260313, -3.6734089123772584, 0.14904824484986307], [23.18756837260313, -3.6734089123772584, 0.14904824484986307], [23.18756837260313, -3.6734089123772584, 0.14904824484986307], [23.18756837260313, -3.6734089123772584, 0.14904824484986307], [23.18756837260313, -3.6734089123772584, 0.14904824484986307], [23.18756837260313, -3.6734089123772584, 0.14904824484986307], [23.18756837260313, -3.6734089123772584, 0.14904824484986307], [23.18756837260313, -3.6734089123772584, 0.14904824484986307], [23.18756837260313, -3.6734089123772584, 0.14904824484986307], [23.18756837260313, -3.6734089123772584, 0.14904824484986307], [23.18756837260313, -3.6734089123772584, 0.14904824484986307], [23.18756837260313, -3.6734089123772584, 0.14904824484986307], [23.18756837260313, -3.6734089123772584, 0.14904824484986307], [22.07613613877115, -7.88008951916964, 0.24904824484986307], [22.07613613877115, -7.88008951916964, 0.24904824484986307], [22.07613613877115, -7.88008951916964, 0.24904824484986307], [22.07613613877115, -7.88008951916964, 0.24904824484986307], [22.07613613877115, -7.88008951916964, 0.24904824484986307], [22.07613613877115, -7.88008951916964, 0.24904824484986307], [22.07613613877115, -7.88008951916964, 0.24904824484986307], [22.07613613877115, -7.88008951916964, 0.24904824484986307], [20.989800473614267, -10.65052580056416, 0.3490482448498631], [20.989800473614267, -10.65052580056416, 0.3490482448498631], [20.989800473614267, -10.65052580056416, 0.3490482448498631], [20.989800473614267, -10.65052580056416, 0.3490482448498631], [20.989800473614267, -10.65052580056416, 0.3490482448498631], [20.989800473614267, -10.65052580056416, 0.3490482448498631], [25.304049512065333, -1.3010943142087097, 0.44904824484986305], [25.304049512065333, -1.3010943142087097, 0.44904824484986305], [25.304049512065333, -1.3010943142087097, 0.44904824484986305], [25.304049512065333, -1.3010943142087097, 0.44904824484986305], [25.304049512065333, -1.3010943142087097, 0.44904824484986305], [25.304049512065333, -1.3010943142087097, 0.44904824484986305], [25.304049512065333, -1.3010943142087097, 0.44904824484986305], [25.304049512065333, -1.3010943142087097, 0.44904824484986305], [25.304049512065333, -1.3010943142087097, 0.44904824484986305], [25.304049512065333, -1.3010943142087097, 0.44904824484986305], [25.304049512065333, -1.3010943142087097, 0.44904824484986305], [25.304049512065333, -1.3010943142087097, 0.44904824484986305], [25.304049512065333, -1.3010943142087097, 0.44904824484986305], [25.304049512065333, -1.3010943142087097, 0.44904824484986305], [23.01924754503609, -7.4701516216597765, 0.549048244849863], [23.01924754503609, -7.4701516216597765, 0.549048244849863], [23.01924754503609, -7.4701516216597765, 0.549048244849863], [23.01924754503609, -7.4701516216597765, 0.549048244849863], [23.01924754503609, -7.4701516216597765, 0.549048244849863], [23.01924754503609, -7.4701516216597765, 0.549048244849863], [23.01924754503609, -7.4701516216597765, 0.549048244849863], [23.01924754503609, -7.4701516216597765, 0.549048244849863], [21.358273027127144, -12.455624436959447, 0.44904824484986305], [21.358273027127144, -12.455624436959447, 0.44904824484986305], [21.358273027127144, -12.455624436959447, 0.44904824484986305], [21.358273027127144, -12.455624436959447, 0.44904824484986305], [21.358273027127144, -12.455624436959447, 0.44904824484986305], [21.358273027127144, -12.455624436959447, 0.44904824484986305], [21.358273027127144, -12.455624436959447, 0.44904824484986305], [21.358273027127144, -12.455624436959447, 0.44904824484986305], [21.358273027127144, -12.455624436959447, 0.44904824484986305], [21.358273027127144, -12.455624436959447, 0.44904824484986305], [21.358273027127144, -12.455624436959447, 0.44904824484986305], [21.358273027127144, -12.455624436959447, 0.44904824484986305], [21.358273027127144, -12.455624436959447, 0.44904824484986305], [21.358273027127144, -12.455624436959447, 0.44904824484986305], [21.358273027127144, -12.455624436959447, 0.44904824484986305], [21.358273027127144, -12.455624436959447, 0.44904824484986305], [21.358273027127144, -12.455624436959447, 0.44904824484986305], [21.358273027127144, -12.455624436959447, 0.44904824484986305], [21.358273027127144, -12.455624436959447, 0.44904824484986305], [21.358273027127144, -12.455624436959447, 0.44904824484986305], [21.358273027127144, -12.455624436959447, 0.44904824484986305], [21.358273027127144, -12.455624436959447, 0.44904824484986305], [21.358273027127144, -12.455624436959447, 0.44904824484986305], [21.358273027127144, -12.455624436959447, 0.44904824484986305], [21.358273027127144, -12.455624436959447, 0.44904824484986305], [21.358273027127144, -12.455624436959447, 0.44904824484986305], [21.358273027127144, -12.455624436959447, 0.44904824484986305], [21.358273027127144, -12.455624436959447, 0.44904824484986305], [21.358273027127144, -12.455624436959447, 0.44904824484986305], [21.358273027127144, -12.455624436959447, 0.44904824484986305], [21.358273027127144, -12.455624436959447, 0.44904824484986305], [21.358273027127144, -12.455624436959447, 0.44904824484986305], [21.358273027127144, -12.455624436959447, 0.44904824484986305], [21.358273027127144, -12.455624436959447, 0.44904824484986305], [21.358273027127144, -12.455624436959447, 0.44904824484986305], [21.358273027127144, -12.455624436959447, 0.44904824484986305], [21.358273027127144, -12.455624436959447, 0.44904824484986305], [21.358273027127144, -12.455624436959447, 0.44904824484986305], [21.358273027127144, -12.455624436959447, 0.44904824484986305], [21.358273027127144, -12.455624436959447, 0.44904824484986305], [21.358273027127144, -12.455624436959447, 0.44904824484986305], [21.358273027127144, -12.455624436959447, 0.44904824484986305], [21.358273027127144, -12.455624436959447, 0.44904824484986305], [21.358273027127144, -12.455624436959447, 0.44904824484986305], [21.358273027127144, -12.455624436959447, 0.44904824484986305], [26.13150681278735, -3.1173695544311286, 0.549048244849863], [26.13150681278735, -3.1173695544311286, 0.549048244849863], [23.634640176661975, -11.910061434046371, 0.649048244849863], [23.634640176661975, -11.910061434046371, 0.649048244849863], [23.634640176661975, -11.910061434046371, 0.649048244849863], [27.189818114031755, -4.792598912952506, 0.549048244849863], [27.189818114031755, -4.792598912952506, 0.549048244849863], [27.189818114031755, -4.792598912952506, 0.549048244849863], [27.189818114031755, -4.792598912952506, 0.549048244849863], [27.189818114031755, -4.792598912952506, 0.549048244849863], [27.189818114031755, -4.792598912952506, 0.549048244849863], [27.189818114031755, -4.792598912952506, 0.549048244849863], [27.189818114031755, -4.792598912952506, 0.549048244849863], [27.189818114031755, -4.792598912952506, 0.549048244849863], [27.189818114031755, -4.792598912952506, 0.549048244849863], [27.189818114031755, -4.792598912952506, 0.549048244849863], [27.189818114031755, -4.792598912952506, 0.549048244849863], [27.189818114031755, -4.792598912952506, 0.549048244849863], [27.189818114031755, -4.792598912952506, 0.549048244849863], [27.189818114031755, -4.792598912952506, 0.549048244849863], [25.89653398067742, -10.80805863207594, 0.44904824484986305], [25.89653398067742, -10.80805863207594, 0.44904824484986305], [25.89653398067742, -10.80805863207594, 0.44904824484986305], [25.89653398067742, -10.80805863207594, 0.44904824484986305], [25.89653398067742, -10.80805863207594, 0.44904824484986305], [25.89653398067742, -10.80805863207594, 0.44904824484986305], [25.89653398067742, -10.80805863207594, 0.44904824484986305], [25.89653398067742, -10.80805863207594, 0.44904824484986305], [25.89653398067742, -10.80805863207594, 0.44904824484986305], [25.89653398067742, -10.80805863207594, 0.44904824484986305], [25.89653398067742, -10.80805863207594, 0.44904824484986305], [25.89653398067742, -10.80805863207594, 0.44904824484986305], [25.89653398067742, -10.80805863207594, 0.44904824484986305], [25.89653398067742, -10.80805863207594, 0.44904824484986305], [25.89653398067742, -10.80805863207594, 0.44904824484986305], [25.89653398067742, -10.80805863207594, 0.44904824484986305], [25.89653398067742, -10.80805863207594, 0.44904824484986305], [25.89653398067742, -10.80805863207594, 0.44904824484986305], [25.89653398067742, -10.80805863207594, 0.44904824484986305], [25.89653398067742, -10.80805863207594, 0.44904824484986305], [25.89653398067742, -10.80805863207594, 0.44904824484986305], [25.89653398067742, -10.80805863207594, 0.44904824484986305], [25.89653398067742, -10.80805863207594, 0.44904824484986305], [25.89653398067742, -10.80805863207594, 0.44904824484986305], [25.89653398067742, -10.80805863207594, 0.44904824484986305], [25.89653398067742, -10.80805863207594, 0.44904824484986305], [25.89653398067742, -10.80805863207594, 0.44904824484986305], [25.89653398067742, -10.80805863207594, 0.44904824484986305], [25.89653398067742, -10.80805863207594, 0.44904824484986305], [25.89653398067742, -10.80805863207594, 0.44904824484986305], [25.89653398067742, -10.80805863207594, 0.44904824484986305], [25.89653398067742, -10.80805863207594, 0.44904824484986305], [25.89653398067742, -10.80805863207594, 0.44904824484986305], [25.89653398067742, -10.80805863207594, 0.44904824484986305], [25.89653398067742, -10.80805863207594, 0.44904824484986305], [25.89653398067742, -10.80805863207594, 0.44904824484986305], [25.89653398067742, -10.80805863207594, 0.44904824484986305], [25.89653398067742, -10.80805863207594, 0.44904824484986305], [25.89653398067742, -10.80805863207594, 0.44904824484986305], [25.89653398067742, -10.80805863207594, 0.44904824484986305], [25.89653398067742, -10.80805863207594, 0.44904824484986305], [25.89653398067742, -10.80805863207594, 0.44904824484986305], [25.89653398067742, -10.80805863207594, 0.44904824484986305], [25.89653398067742, -10.80805863207594, 0.44904824484986305], [25.89653398067742, -10.80805863207594, 0.44904824484986305], [25.89653398067742, -10.80805863207594, 0.44904824484986305], [25.89653398067742, -10.80805863207594, 0.44904824484986305], [25.89653398067742, -10.80805863207594, 0.44904824484986305], [25.89653398067742, -10.80805863207594, 0.44904824484986305], [25.89653398067742, -10.80805863207594, 0.44904824484986305], [25.89653398067742, -10.80805863207594, 0.44904824484986305], [25.89653398067742, -10.80805863207594, 0.44904824484986305], [25.89653398067742, -10.80805863207594, 0.44904824484986305], [25.89653398067742, -10.80805863207594, 0.44904824484986305], [25.89653398067742, -10.80805863207594, 0.44904824484986305], [25.89653398067742, -10.80805863207594, 0.44904824484986305], [25.89653398067742, -10.80805863207594, 0.44904824484986305], [25.89653398067742, -10.80805863207594, 0.44904824484986305], [25.89653398067742, -10.80805863207594, 0.44904824484986305], [25.89653398067742, -10.80805863207594, 0.44904824484986305], [25.89653398067742, -10.80805863207594, 0.44904824484986305], [25.89653398067742, -10.80805863207594, 0.44904824484986305], [25.89653398067742, -10.80805863207594, 0.44904824484986305], [25.89653398067742, -10.80805863207594, 0.44904824484986305], [25.89653398067742, -10.80805863207594, 0.44904824484986305], [25.89653398067742, -10.80805863207594, 0.44904824484986305], [25.89653398067742, -10.80805863207594, 0.44904824484986305], [25.89653398067742, -10.80805863207594, 0.44904824484986305], [25.89653398067742, -10.80805863207594, 0.44904824484986305], [25.89653398067742, -10.80805863207594, 0.44904824484986305], [25.89653398067742, -10.80805863207594, 0.44904824484986305], [25.89653398067742, -10.80805863207594, 0.44904824484986305], [25.89653398067742, -10.80805863207594, 0.44904824484986305], [25.89653398067742, -10.80805863207594, 0.44904824484986305], [25.89653398067742, -10.80805863207594, 0.44904824484986305], [25.89653398067742, -10.80805863207594, 0.44904824484986305], [25.89653398067742, -10.80805863207594, 0.44904824484986305], [25.89653398067742, -10.80805863207594, 0.44904824484986305], [25.89653398067742, -10.80805863207594, 0.44904824484986305], [25.89653398067742, -10.80805863207594, 0.44904824484986305], [25.89653398067742, -10.80805863207594, 0.44904824484986305], [25.89653398067742, -10.80805863207594, 0.44904824484986305], [25.89653398067742, -10.80805863207594, 0.44904824484986305], [25.89653398067742, -10.80805863207594, 0.44904824484986305]]