[[0.782714670511742, -0.3998401886729177, -0.7378078967604196], [0.782714670511742, -0.3998401886729177, -0.7378078967604196], [0.782714670511742, -0.3998401886729177, -0.7378078967604196], [0.782714670511742, -0.3998401886729177, -0.7378078967604196], [0.782714670511742, -0.3998401886729177, -0.7378078967604196], [4.341017499244488, 7.094217464390951, -0.6378078967604196], [4.341017499244488, 7.094217464390951, -0.6378078967604196], [9.000538999206485, -2.216519739046536, -0.5378078967604196], [9.000538999206485, -2.216519739046536, -0.5378078967604196], [9.000538999206485, -2.216519739046536, -0.5378078967604196], [9.000538999206485, -2.216519739046536, -0.5378078967604196], [9.000538999206485, -2.216519739046536, -0.5378078967604196], [9.000538999206485, -2.216519739046536, -0.5378078967604196], [9.000538999206485, -2.216519739046536, -0.5378078967604196], [9.000538999206485, -2.216519739046536, -0.5378078967604196], [9.000538999206485, -2.216519739046536, -0.5378078967604196], [9.000538999206485, -2.216519739046536, -0.5378078967604196], [9.000538999206485, -2.216519739046536, -0.5378078967604196], [9.000538999206485, -2.216519739046536, -0.5378078967604196], [6.896387503448526, -9.176722460307243, -0.6378078967604196], [6.896387503448526, -9.176722460307243, -0.6378078967604196], [11.573291670547999, -4.945250392754596, -0.5378078967604196], [11.573291670547999, -4.945250392754596, -0.5378078967604196], [11.573291670547999, -4.945250392754596, -0.5378078967604196], [11.573291670547999, -4.945250392754596, -0.5378078967604196], [11.573291670547999, -4.945250392754596, -0.5378078967604196], [11.573291670547999, -4.945250392754596, -0.5378078967604196], [11.573291670547999, -4.945250392754596, -0.5378078967604196], [11.573291670547999, -4.945250392754596, -0.5378078967604196], [11.573291670547999, -4.945250392754596, -0.5378078967604196], [11.573291670547999, -4.945250392754596, -0.5378078967604196], [11.573291670547999, -4.945250392754596, -0.5378078967604196], [11.573291670547999, -4.945250392754596, -0.5378078967604196], [11.573291670547999, -4.945250392754596, -0.5378078967604196], [11.573291670547999, -4.945250392754596, -0.5378078967604196], [11.573291670547999, -4.945250392754596, -0.5378078967604196], [11.573291670547999, -4.945250392754596, -0.5378078967604196], [11.573291670547999, -4.945250392754596, -0.5378078967604196], [11.573291670547999, -4.945250392754596, -0.5378078967604196], [11.573291670547999, -4.945250392754596, -0.5378078967604196], [11.573291670547999, -4.945250392754596, -0.5378078967604196], [11.573291670547999, -4.945250392754596, -0.5378078967604196], [11.573291670547999, -4.945250392754596, -0.5378078967604196], [11.573291670547999, -4.945250392754596, -0.5378078967604196], [11.573291670547999, -4.945250392754596, -0.5378078967604196], [11.573291670547999, -4.945250392754596, -0.5378078967604196], [11.573291670547999, -4.945250392754596, -0.5378078967604196], [11.573291670547999, -4.945250392754596, -0.5378078967604196], [11.573291670547999, -4.945250392754596, -0.5378078967604196], [11.573291670547999, -4.945250392754596, -0.5378078967604196], [11.573291670547999, -4.945250392754596, -0.5378078967604196], [11.573291670547999, -4.945250392754596, -0.5378078967604196], [11.573291670547999, -4.945250392754596, -0.5378078967604196], [11.573291670547999, -4.945250392754596, -0.5378078967604196], [11.573291670547999, -4.945250392754596, -0.5378078967604196], [11.573291670547999, -4.945250392754596, -0.5378078967604196], [11.573291670547999, -4.945250392754596, -0.5378078967604196], [11.573291670547999, -4.945250392754596, -0.5378078967604196], [11.573291670547999, -4.945250392754596, -0.5378078967604196], [11.573291670547999, -4.945250392754596, -0.5378078967604196], [11.573291670547999, -4.945250392754596, -0.5378078967604196], [11.573291670547999, -4.945250392754596, -0.5378078967604196], [11.573291670547999, -4.945250392754596, -0.5378078967604196], [11.573291670547999, -4.945250392754596, -0.5378078967604196], [11.573291670547999, -4.945250392754596, -0.5378078967604196], [11.573291670547999, -4.945250392754596, -0.5378078967604196], [11.573291670547999, -4.945250392754596, -0.5378078967604196], [11.573291670547999, -4.945250392754596, -0.5378078967604196], [11.573291670547999, -4.945250392754596, -0.5378078967604196], [11.573291670547999, -4.945250392754596, -0.5378078967604196], [11.573291670547999, -4.945250392754596, -0.5378078967604196], [11.573291670547999, -4.945250392754596, -0.5378078967604196], [11.573291670547999, -4.945250392754596, -0.5378078967604196], [11.573291670547999, -4.945250392754596, -0.5378078967604196], [11.573291670547999, -4.945250392754596, -0.5378078967604196], [11.573291670547999, -4.945250392754596, -0.5378078967604196], [11.573291670547999, -4.945250392754596, -0.5378078967604196], [11.573291670547999, -4.945250392754596, -0.5378078967604196], [11.573291670547999, -4.945250392754596, -0.5378078967604196], [11.573291670547999, -4.945250392754596, -0.5378078967604196], [11.573291670547999, -4.945250392754596, -0.5378078967604196], [11.573291670547999, -4.945250392754596, -0.5378078967604196], [11.573291670547999, -4.945250392754596, -0.5378078967604196], [11.573291670547999, -4.945250392754596, -0.5378078967604196], [11.573291670547999, -4.945250392754596, -0.5378078967604196], [11.573291670547999, -4.945250392754596, -0.5378078967604196], [11.573291670547999, -4.945250392754596, -0.5378078967604196], [11.573291670547999, -4.945250392754596, -0.5378078967604196], [11.573291670547999, -4.945250392754596, -0.5378078967604196], [11.573291670547999, -4.945250392754596, -0.5378078967604196], [11.573291670547999, -4.945250392754596, -0.5378078967604196], [11.573291670547999, -4.945250392754596, -0.5378078967604196], [11.573291670547999, -4.945250392754596, -0.5378078967604196], [11.573291670547999, -4.945250392754596, -0.5378078967604196], [11.573291670547999, -4.945250392754596, -0.5378078967604196], [11.573291670547999, -4.945250392754596, -0.5378078967604196], [11.573291670547999, -4.945250392754596, -0.5378078967604196], [11.573291670547999, -4.945250392754596, -0.5378078967604196], [11.573291670547999, -4.945250392754596, -0.5378078967604196], [11.573291670547999, -4.945250392754596, -0.5378078967604196], [11.573291670547999, -4.945250392754596, -0.5378078967604196], [11.573291670547999, -4.945250392754596, -0.5378078967604196], [11.573291670547999, -4.945250392754596, -0.5378078967604196], [11.573291670547999, -4.945250392754596, -0.5378078967604196], [11.573291670547999, -4.945250392754596, -0.5378078967604196], [11.573291670547999, -4.945250392754596, -0.5378078967604196], [11.573291670547999, -4.945250392754596, -0.5378078967604196], [11.573291670547999, -4.945250392754596, -0.5378078967604196], [11.573291670547999, -4.945250392754596, -0.5378078967604196], [11.573291670547999, -4.945250392754596, -0.5378078967604196], [13.50269002116049, -0.39776788692885745, -0.43780789676041965], [13.50269002116049, -0.39776788692885745, -0.43780789676041965], [13.50269002116049, -0.39776788692885745, -0.43780789676041965], [13.50269002116049, -0.39776788692885745, -0.43780789676041965], [13.50269002116049, -0.39776788692885745, -0.43780789676041965], [13.50269002116049, -0.39776788692885745, -0.43780789676041965], [13.50269002116049, -0.39776788692885745, -0.43780789676041965], [13.50269002116049, -0.39776788692885745, -0.43780789676041965], [13.50269002116049, -0.39776788692885745, -0.43780789676041965], [13.50269002116049, -0.39776788692885745, -0.43780789676041965], [13.50269002116049, -0.39776788692885745, -0.43780789676041965], [13.50269002116049, -0.39776788692885745, -0.43780789676041965], [13.50269002116049, -0.39776788692885745, -0.43780789676041965], [13.50269002116049, -0.39776788692885745, -0.43780789676041965], [13.50269002116049, -0.39776788692885745, -0.43780789676041965], [12.402703215381006, -9.043285657352243, -0.5378078967604196], [12.402703215381006, -9.043285657352243, -0.5378078967604196], [12.402703215381006, -9.043285657352243, -0.5378078967604196], [12.402703215381006, -9.043285657352243, -0.5378078967604196], [12.402703215381006, -9.043285657352243, -0.5378078967604196], [12.402703215381006, -9.043285657352243, -0.5378078967604196], [12.402703215381006, -9.043285657352243, -0.5378078967604196], [18.052877130575816, 0.5346381521889274, -0.43780789676041965], [18.052877130575816, 0.5346381521889274, -0.43780789676041965], [18.052877130575816, 0.5346381521889274, -0.43780789676041965], [18.052877130575816, 0.5346381521889274, -0.43780789676041965], [18.052877130575816, 0.5346381521889274, -0.43780789676041965], [18.052877130575816, 0.5346381521889274, -0.43780789676041965], [18.052877130575816, 0.5346381521889274, -0.43780789676041965], [18.052877130575816, 0.5346381521889274, -0.43780789676041965], [18.052877130575816, 0.5346381521889274, -0.43780789676041965], [18.052877130575816, 0.5346381521889274, -0.43780789676041965], [18.052877130575816, 0.5346381521889274, -0.43780789676041965], [14.093831938560397, -8.862224155833616, -0.33780789676041967], [14.093831938560397, -8.862224155833616, -0.33780789676041967], [14.093831938560397, -8.862224155833616, -0.33780789676041967], [14.093831938560397, -8.862224155833616, -0.33780789676041967], [14.093831938560397, -8.862224155833616, -0.33780789676041967], [14.093831938560397, -8.862224155833616, -0.33780789676041967], [14.093831938560397, -8.862224155833616, -0.33780789676041967], [14.093831938560397, -8.862224155833616, -0.33780789676041967], [14.093831938560397, -8.862224155833616, -0.33780789676041967], [14.093831938560397, -8.862224155833616, -0.33780789676041967], [14.093831938560397, -8.862224155833616, -0.33780789676041967], [14.093831938560397, -8.862224155833616, -0.33780789676041967], [14.093831938560397, -8.862224155833616, -0.33780789676041967], [14.093831938560397, -8.862224155833616, -0.33780789676041967], [14.093831938560397, -8.862224155833616, -0.33780789676041967], [14.093831938560397, -8.862224155833616, -0.33780789676041967], [14.093831938560397, -8.862224155833616, -0.33780789676041967], [14.093831938560397, -8.862224155833616, -0.33780789676041967], [14.093831938560397, -8.862224155833616, -0.33780789676041967], [14.093831938560397, -8.862224155833616, -0.33780789676041967], [14.093831938560397, -8.862224155833616, -0.33780789676041967], [14.093831938560397, -8.862224155833616, -0.33780789676041967], [14.093831938560397, -8.862224155833616, -0.33780789676041967], [14.093831938560397, -8.862224155833616, -0.33780789676041967], [18.976689195492483, -0.48849857253771845, -0.43780789676041965], [18.976689195492483, -0.48849857253771845, -0.43780789676041965], [18.976689195492483, -0.48849857253771845, -0.43780789676041965], [18.976689195492483, -0.48849857253771845, -0.43780789676041965], [18.976689195492483, -0.48849857253771845, -0.43780789676041965], [18.976689195492483, -0.48849857253771845, -0.43780789676041965], [18.976689195492483, -0.48849857253771845, -0.43780789676041965], [18.976689195492483, -0.48849857253771845, -0.43780789676041965], [18.976689195492483, -0.48849857253771845, -0.43780789676041965], [18.976689195492483, -0.48849857253771845, -0.43780789676041965], [18.976689195492483, -0.48849857253771845, -0.43780789676041965], [18.976689195492483, -0.48849857253771845, -0.43780789676041965], [18.976689195492483, -0.48849857253771845, -0.43780789676041965], [18.976689195492483, -0.48849857253771845, -0.43780789676041965], [18.976689195492483, -0.48849857253771845, -0.43780789676041965], [17.63327909499437, -4.720300632263787, -0.33780789676041967], [17.63327909499437, -4.720300632263787, -0.33780789676041967], [17.63327909499437, -4.720300632263787, -0.33780789676041967], [17.63327909499437, -4.720300632263787, -0.33780789676041967], [17.63327909499437, -4.720300632263787, -0.33780789676041967], [17.63327909499437, -4.720300632263787, -0.33780789676041967], [17.63327909499437, -4.720300632263787, -0.33780789676041967], [17.63327909499437, -4.720300632263787, -0.33780789676041967], [17.63327909499437, -4.720300632263787, -0.33780789676041967], [17.63327909499437, -4.720300632263787, -0.33780789676041967], [17.63327909499437, -4.720300632263787, -0.33780789676041967], [17.63327909499437, -4.720300632263787, -0.33780789676041967], [17.63327909499437, -4.720300632263787, -0.33780789676041967], [17.63327909499437, -4.720300632263787, -0.33780789676041967], [17.63327909499437, -4.720300632263787, -0.33780789676041967], [17.63327909499437, -4.720300632263787, -0.33780789676041967], [17.63327909499437, -4.720300632263787, -0.33780789676041967], [17.63327909499437, -4.720300632263787, -0.33780789676041967], [17.63327909499437, -4.720300632263787, -0.33780789676041967], [17.63327909499437, -4.720300632263787, -0.33780789676041967], [17.63327909499437, -4.720300632263787, -0.33780789676041967], [17.63327909499437, -4.720300632263787, -0.33780789676041967], [17.63327909499437, -4.720300632263787, -0.33780789676041967], [17.63327909499437, -4.720300632263787, -0.33780789676041967], [17.63327909499437, -4.720300632263787, -0.33780789676041967], [16.02143408563301, -10.337146680970633, -0.23780789676041966], [16.02143408563301, -10.337146680970633, -0.23780789676041966], [16.02143408563301, -10.337146680970633, -0.23780789676041966], [16.02143408563301, -10.337146680970633, -0.23780789676041966], [16.02143408563301, -10.337146680970633, -0.23780789676041966], [16.02143408563301, -10.337146680970633, -0.23780789676041966], [16.02143408563301, -10.337146680970633, -0.23780789676041966], [16.02143408563301, -10.337146680970633, -0.23780789676041966], [16.02143408563301, -10.337146680970633, -0.23780789676041966], [16.02143408563301, -10.337146680970633, -0.23780789676041966], [16.02143408563301, -10.337146680970633, -0.23780789676041966], [16.02143408563301, -10.337146680970633, -0.23780789676041966], [16.02143408563301, -10.337146680970633, -0.23780789676041966], [16.02143408563301, -10.337146680970633, -0.23780789676041966], [16.02143408563301, -10.337146680970633, -0.23780789676041966], [16.02143408563301, -10.337146680970633, -0.23780789676041966], [19.827357438812, -3.094266863262064, -0.13780789676041966], [19.827357438812, -3.094266863262064, -0.13780789676041966], [19.827357438812, -3.094266863262064, -0.13780789676041966], [19.827357438812, -3.094266863262064, -0.13780789676041966], [19.827357438812, -3.094266863262064, -0.13780789676041966], [19.827357438812, -3.094266863262064, -0.13780789676041966], [19.827357438812, -3.094266863262064, -0.13780789676041966], [19.827357438812, -3.094266863262064, -0.13780789676041966], [19.827357438812, -3.094266863262064, -0.13780789676041966], [19.827357438812, -3.094266863262064, -0.13780789676041966], [19.827357438812, -3.094266863262064, -0.13780789676041966], [19.827357438812, -3.094266863262064, -0.13780789676041966], [19.827357438812, -3.094266863262064, -0.13780789676041966], [19.827357438812, -3.094266863262064, -0.13780789676041966], [18.041803575038266, -11.379764320970196, -0.03780789676041965], [18.041803575038266, -11.379764320970196, -0.03780789676041965], [18.041803575038266, -11.379764320970196, -0.03780789676041965], [18.041803575038266, -11.379764320970196, -0.03780789676041965], [18.041803575038266, -11.379764320970196, -0.03780789676041965], [18.041803575038266, -11.379764320970196, -0.03780789676041965], [18.041803575038266, -11.379764320970196, -0.03780789676041965], [18.041803575038266, -11.379764320970196, -0.03780789676041965], [18.041803575038266, -11.379764320970196, -0.03780789676041965], [18.041803575038266, -11.379764320970196, -0.03780789676041965], [18.041803575038266, -11.379764320970196, -0.03780789676041965], [18.041803575038266, -11.379764320970196, -0.03780789676041965], [18.041803575038266, -11.379764320970196, -0.03780789676041965], [18.041803575038266, -11.379764320970196, -0.03780789676041965], [18.041803575038266, -11.379764320970196, -0.03780789676041965], [18.041803575038266, -11.379764320970196, -0.03780789676041965], [18.041803575038266, -11.379764320970196, -0.03780789676041965], [18.041803575038266, -11.379764320970196, -0.03780789676041965], [18.041803575038266, -11.379764320970196, -0.03780789676041965], [18.041803575038266, -11.379764320970196, -0.03780789676041965], [18.041803575038266, -11.379764320970196, -0.03780789676041965], [18.041803575038266, -11.379764320970196, -0.03780789676041965], [18.041803575038266, -11.379764320970196, -0.03780789676041965], [18.041803575038266, -11.379764320970196, -0.03780789676041965], [18.041803575038266, -11.379764320970196, -0.03780789676041965], [18.041803575038266, -11.379764320970196, -0.03780789676041965], [18.041803575038266, -11.379764320970196, -0.03780789676041965], [18.041803575038266, -11.379764320970196, -0.03780789676041965], [18.041803575038266, -11.379764320970196, -0.03780789676041965], [18.041803575038266, -11.379764320970196, -0.03780789676041965], [18.041803575038266, -11.379764320970196, -0.03780789676041965], [18.041803575038266, -11.379764320970196, -0.03780789676041965], [18.041803575038266, -11.379764320970196, -0.03780789676041965], [18.041803575038266, -11.379764320970196, -0.03780789676041965], [18.041803575038266, -11.379764320970196, -0.03780789676041965], [18.041803575038266, -11.379764320970196, -0.03780789676041965], [18.041803575038266, -11.379764320970196, -0.03780789676041965], [18.041803575038266, -11.379764320970196, -0.03780789676041965], [18.041803575038266, -11.379764320970196, -0.03780789676041965], [18.041803575038266, -11.379764320970196, -0.03780789676041965], [18.041803575038266, -11.379764320970196, -0.03780789676041965], [18.041803575038266, -11.379764320970196, -0.03780789676041965], [18.041803575038266, -11.379764320970196, -0.03780789676041965], [18.041803575038266, -11.379764320970196, -0.03780789676041965], [18.041803575038266, -11.379764320970196, -0.03780789676041965], [18.041803575038266, -11.379764320970196, -0.03780789676041965], [18.041803575038266, -11.379764320970196, -0.03780789676041965], [18.041803575038266, -11.379764320970196, -0.03780789676041965], [18.041803575038266, -11.379764320970196, -0.03780789676041965], [18.041803575038266, -11.379764320970196, -0.03780789676041965], [18.041803575038266, -11.379764320970196, -0.03780789676041965], [22.650786720077885, -2.0518279071909458, -0.13780789676041966], [22.650786720077885, -2.0518279071909458, -0.13780789676041966], [22.650786720077885, -2.0518279071909458, -0.13780789676041966], [22.650786720077885, -2.0518279071909458, -0.13780789676041966], [22.650786720077885, -2.0518279071909458, -0.13780789676041966], [22.650786720077885, -2.0518279071909458, -0.13780789676041966], [22.650786720077885, -2.0518279071909458, -0.13780789676041966], [22.650786720077885, -2.0518279071909458, -0.13780789676041966], [22.650786720077885, -2.0518279071909458, -0.13780789676041966], [22.650786720077885, -2.0518279071909458, -0.13780789676041966], [22.650786720077885, -2.0518279071909458, -0.13780789676041966], [22.650786720077885, -2.0518279071909458, -0.13780789676041966], [22.650786720077885, -2.0518279071909458, -0.13780789676041966], [21.291375548605206, -8.112953968352617, -0.23780789676041966], [21.291375548605206, -8.112953968352617, -0.23780789676041966], [21.291375548605206, -8.112953968352617, -0.23780789676041966], [21.291375548605206, -8.112953968352617, -0.23780789676041966], [21.291375548605206, -8.112953968352617, -0.23780789676041966], [21.291375548605206, -8.112953968352617, -0.23780789676041966], [21.291375548605206, -8.112953968352617, -0.23780789676041966], [21.291375548605206, -8.112953968352617, -0.23780789676041966], [21.291375548605206, -8.112953968352617, -0.23780789676041966], [21.291375548605206, -8.112953968352617, -0.23780789676041966], [21.291375548605206, -8.112953968352617, -0.23780789676041966], [21.291375548605206, -8.112953968352617, -0.23780789676041966], [21.291375548605206, -8.112953968352617, -0.23780789676041966], [21.291375548605206, -8.112953968352617, -0.23780789676041966], [21.291375548605206, -8.112953968352617, -0.23780789676041966], [21.291375548605206, -8.112953968352617, -0.23780789676041966], [21.291375548605206, -8.112953968352617, -0.23780789676041966], [21.291375548605206, -8.112953968352617, -0.23780789676041966], [21.291375548605206, -8.112953968352617, -0.23780789676041966], [21.291375548605206, -8.112953968352617, -0.23780789676041966], [21.291375548605206, -8.112953968352617, -0.23780789676041966], [21.291375548605206, -8.112953968352617, -0.23780789676041966], [21.291375548605206, -8.112953968352617, -0.23780789676041966], [21.291375548605206, -8.112953968352617, -0.23780789676041966], [21.291375548605206, -8.112953968352617, -0.23780789676041966], [21.291375548605206, -8.112953968352617, -0.23780789676041966], [21.291375548605206, -8.112953968352617, -0.23780789676041966], [21.291375548605206, -8.112953968352617, -0.23780789676041966], [21.291375548605206, -8.112953968352617, -0.23780789676041966], [21.291375548605206, -8.112953968352617, -0.23780789676041966], [21.291375548605206, -8.112953968352617, -0.23780789676041966], [21.291375548605206, -8.112953968352617, -0.23780789676041966], [21.291375548605206, -8.112953968352617, -0.23780789676041966], [21.291375548605206, -8.112953968352617, -0.23780789676041966], [21.291375548605206, -8.112953968352617, -0.23780789676041966], [21.291375548605206, -8.112953968352617, -0.23780789676041966], [21.291375548605206, -8.112953968352617, -0.23780789676041966], [21.291375548605206, -8.112953968352617, -0.23780789676041966], [21.291375548605206, -8.112953968352617, -0.23780789676041966], [21.291375548605206, -8.112953968352617, -0.23780789676041966], [21.291375548605206, -8.112953968352617, -0.23780789676041966], [21.291375548605206, -8.112953968352617, -0.23780789676041966], [21.291375548605206, -8.112953968352617, -0.23780789676041966], [21.291375548605206, -8.112953968352617, -0.23780789676041966], [21.291375548605206, -8.112953968352617, -0.23780789676041966], [21.291375548605206, -8.112953968352617, -0.23780789676041966], [21.291375548605206, -8.112953968352617, -0.23780789676041966], [21.291375548605206, -8.112953968352617, -0.23780789676041966], [21.291375548605206, -8.112953968352617, -0.23780789676041966], [21.291375548605206, -8.112953968352617, -0.23780789676041966], [21.291375548605206, -8.112953968352617, -0.23780789676041966], [21.291375548605206, -8.112953968352617, -0.23780789676041966], [21.291375548605206, -8.112953968352617, -0.23780789676041966], [21.291375548605206, -8.112953968352617, -0.23780789676041966], [21.291375548605206, -8.112953968352617, -0.23780789676041966], [21.291375548605206, -8.112953968352617, -0.23780789676041966], [21.291375548605206, -8.112953968352617, -0.23780789676041966], [21.291375548605206, -8.112953968352617, -0.23780789676041966], [21.291375548605206, -8.112953968352617, -0.23780789676041966], [21.291375548605206, -8.112953968352617, -0.23780789676041966], [21.291375548605206, -8.112953968352617, -0.23780789676041966], [21.291375548605206, -8.112953968352617, -0.23780789676041966], [21.291375548605206, -8.112953968352617, -0.23780789676041966], [21.291375548605206, -8.112953968352617, -0.23780789676041966], [21.291375548605206, -8.112953968352617, -0.23780789676041966], [21.291375548605206, -8.112953968352617, -0.23780789676041966], [21.291375548605206, -8.112953968352617, -0.23780789676041966], [21.291375548605206, -8.112953968352617, -0.23780789676041966], [21.291375548605206, -8.112953968352617, -0.23780789676041966], [21.291375548605206, -8.112953968352617, -0.23780789676041966], [21.291375548605206, -8.112953968352617, -0.23780789676041966], [21.291375548605206, -8.112953968352617, -0.23780789676041966], [21.291375548605206, -8.112953968352617, -0.23780789676041966], [21.291375548605206, -8.112953968352617, -0.23780789676041966], [21.291375548605206, -8.112953968352617, -0.23780789676041966], [21.291375548605206, -8.112953968352617, -0.23780789676041966], [21.291375548605206, -8.112953968352617, -0.23780789676041966], [21.291375548605206, -8.112953968352617, -0.23780789676041966], [21.291375548605206, -8.112953968352617, -0.23780789676041966], [21.291375548605206, -8.112953968352617, -0.23780789676041966], [21.291375548605206, -8.112953968352617, -0.23780789676041966], [21.291375548605206, -8.112953968352617, -0.23780789676041966], [21.291375548605206, -8.112953968352617, -0.23780789676041966], [21.291375548605206, -8.112953968352617, -0.23780789676041966], [21.291375548605206, -8.112953968352617, -0.23780789676041966], [21.291375548605206, -8.112953968352617, -0.23780789676041966], [21.291375548605206, -8.112953968352617, -0.23780789676041966], [21.291375548605206, -8.112953968352617, -0.23780789676041966], [21.291375548605206, -8.112953968352617, -0.23780789676041966], [21.291375548605206, -8.112953968352617, -0.23780789676041966], [21.291375548605206, -8.112953968352617, -0.23780789676041966], [21.291375548605206, -8.112953968352617, -0.23780789676041966], [21.291375548605206, -8.112953968352617, -0.23780789676041966], [21.291375548605206, -8.112953968352617, -0.23780789676041966], [21.291375548605206, -8.112953968352617, -0.23780789676041966], [21.291375548605206, -8.112953968352617, -0.23780789676041966], [21.291375548605206, -8.112953968352617, -0.23780789676041966], [21.291375548605206, -8.112953968352617, -0.23780789676041966], [21.291375548605206, -8.112953968352617, -0.23780789676041966]]