[[-0.13939350536626716, -0.7269107837773785, 0.8363820541980351], [-0.13939350536626716, -0.7269107837773785, 0.8363820541980351], [6.329810301480105, 5.851455128527089, 0.7363820541980352], [7.921383823349066, -0.8327762759619262, 0.6363820541980352], [7.921383823349066, -0.8327762759619262, 0.6363820541980352], [7.921383823349066, -0.8327762759619262, 0.6363820541980352], [7.921383823349066, -0.8327762759619262, 0.6363820541980352], [7.921383823349066, -0.8327762759619262, 0.6363820541980352], [7.921383823349066, -0.8327762759619262, 0.6363820541980352], [7.921383823349066, -0.8327762759619262, 0.6363820541980352], [7.921383823349066, -0.8327762759619262, 0.6363820541980352], [7.921383823349066, -0.8327762759619262, 0.6363820541980352], [7.921383823349066, -0.8327762759619262, 0.6363820541980352], [7.921383823349066, -0.8327762759619262, 0.6363820541980352], [7.921383823349066, -0.8327762759619262, 0.6363820541980352], [7.921383823349066, -0.8327762759619262, 0.6363820541980352], [7.921383823349066, -0.8327762759619262, 0.6363820541980352], [7.921383823349066, -0.8327762759619262, 0.6363820541980352], [7.921383823349066, -0.8327762759619262, 0.6363820541980352], [5.817232327591107, -7.792978997222632, 0.5363820541980352], [5.817232327591107, -7.792978997222632, 0.5363820541980352], [10.49413649469058, -3.561506929669985, 0.6363820541980352], [10.49413649469058, -3.561506929669985, 0.6363820541980352], [10.49413649469058, -3.561506929669985, 0.6363820541980352], [10.49413649469058, -3.561506929669985, 0.6363820541980352], [10.49413649469058, -3.561506929669985, 0.6363820541980352], [10.49413649469058, -3.561506929669985, 0.6363820541980352], [10.49413649469058, -3.561506929669985, 0.6363820541980352], [10.49413649469058, -3.561506929669985, 0.6363820541980352], [10.49413649469058, -3.561506929669985, 0.6363820541980352], [10.49413649469058, -3.561506929669985, 0.6363820541980352], [10.49413649469058, -3.561506929669985, 0.6363820541980352], [10.49413649469058, -3.561506929669985, 0.6363820541980352], [10.49413649469058, -3.561506929669985, 0.6363820541980352], [10.49413649469058, -3.561506929669985, 0.6363820541980352], [10.49413649469058, -3.561506929669985, 0.6363820541980352], [10.49413649469058, -3.561506929669985, 0.6363820541980352], [10.49413649469058, -3.561506929669985, 0.6363820541980352], [10.49413649469058, -3.561506929669985, 0.6363820541980352], [10.49413649469058, -3.561506929669985, 0.6363820541980352], [10.49413649469058, -3.561506929669985, 0.6363820541980352], [10.49413649469058, -3.561506929669985, 0.6363820541980352], [10.49413649469058, -3.561506929669985, 0.6363820541980352], [10.49413649469058, -3.561506929669985, 0.6363820541980352], [10.49413649469058, -3.561506929669985, 0.6363820541980352], [10.49413649469058, -3.561506929669985, 0.6363820541980352], [10.49413649469058, -3.561506929669985, 0.6363820541980352], [10.49413649469058, -3.561506929669985, 0.6363820541980352], [10.49413649469058, -3.561506929669985, 0.6363820541980352], [10.49413649469058, -3.561506929669985, 0.6363820541980352], [10.49413649469058, -3.561506929669985, 0.6363820541980352], [10.49413649469058, -3.561506929669985, 0.6363820541980352], [10.49413649469058, -3.561506929669985, 0.6363820541980352], [10.49413649469058, -3.561506929669985, 0.6363820541980352], [10.49413649469058, -3.561506929669985, 0.6363820541980352], [10.49413649469058, -3.561506929669985, 0.6363820541980352], [10.49413649469058, -3.561506929669985, 0.6363820541980352], [10.49413649469058, -3.561506929669985, 0.6363820541980352], [10.49413649469058, -3.561506929669985, 0.6363820541980352], [10.49413649469058, -3.561506929669985, 0.6363820541980352], [10.49413649469058, -3.561506929669985, 0.6363820541980352], [10.49413649469058, -3.561506929669985, 0.6363820541980352], [10.49413649469058, -3.561506929669985, 0.6363820541980352], [10.49413649469058, -3.561506929669985, 0.6363820541980352], [10.49413649469058, -3.561506929669985, 0.6363820541980352], [10.49413649469058, -3.561506929669985, 0.6363820541980352], [10.49413649469058, -3.561506929669985, 0.6363820541980352], [10.49413649469058, -3.561506929669985, 0.6363820541980352], [10.49413649469058, -3.561506929669985, 0.6363820541980352], [10.49413649469058, -3.561506929669985, 0.6363820541980352], [10.49413649469058, -3.561506929669985, 0.6363820541980352], [10.49413649469058, -3.561506929669985, 0.6363820541980352], [10.49413649469058, -3.561506929669985, 0.6363820541980352], [10.49413649469058, -3.561506929669985, 0.6363820541980352], [10.49413649469058, -3.561506929669985, 0.6363820541980352], [10.49413649469058, -3.561506929669985, 0.6363820541980352], [10.49413649469058, -3.561506929669985, 0.6363820541980352], [10.49413649469058, -3.561506929669985, 0.6363820541980352], [10.49413649469058, -3.561506929669985, 0.6363820541980352], [10.49413649469058, -3.561506929669985, 0.6363820541980352], [10.49413649469058, -3.561506929669985, 0.6363820541980352], [10.49413649469058, -3.561506929669985, 0.6363820541980352], [10.49413649469058, -3.561506929669985, 0.6363820541980352], [10.49413649469058, -3.561506929669985, 0.6363820541980352], [10.49413649469058, -3.561506929669985, 0.6363820541980352], [10.49413649469058, -3.561506929669985, 0.6363820541980352], [10.49413649469058, -3.561506929669985, 0.6363820541980352], [10.49413649469058, -3.561506929669985, 0.6363820541980352], [10.49413649469058, -3.561506929669985, 0.6363820541980352], [10.49413649469058, -3.561506929669985, 0.6363820541980352], [10.49413649469058, -3.561506929669985, 0.6363820541980352], [10.49413649469058, -3.561506929669985, 0.6363820541980352], [10.49413649469058, -3.561506929669985, 0.6363820541980352], [10.49413649469058, -3.561506929669985, 0.6363820541980352], [10.49413649469058, -3.561506929669985, 0.6363820541980352], [10.49413649469058, -3.561506929669985, 0.6363820541980352], [10.49413649469058, -3.561506929669985, 0.6363820541980352], [10.49413649469058, -3.561506929669985, 0.6363820541980352], [10.49413649469058, -3.561506929669985, 0.6363820541980352], [10.49413649469058, -3.561506929669985, 0.6363820541980352], [7.775260140427792, -11.561831630442645, 0.5363820541980352], [7.775260140427792, -11.561831630442645, 0.5363820541980352], [7.775260140427792, -11.561831630442645, 0.5363820541980352], [7.775260140427792, -11.561831630442645, 0.5363820541980352], [7.775260140427792, -11.561831630442645, 0.5363820541980352], [7.775260140427792, -11.561831630442645, 0.5363820541980352], [7.775260140427792, -11.561831630442645, 0.5363820541980352], [7.775260140427792, -11.561831630442645, 0.5363820541980352], [7.775260140427792, -11.561831630442645, 0.5363820541980352], [15.067238221591367, -3.444353504694927, 0.6363820541980352], [15.067238221591367, -3.444353504694927, 0.6363820541980352], [15.067238221591367, -3.444353504694927, 0.6363820541980352], [15.067238221591367, -3.444353504694927, 0.6363820541980352], [15.067238221591367, -3.444353504694927, 0.6363820541980352], [15.067238221591367, -3.444353504694927, 0.6363820541980352], [15.067238221591367, -3.444353504694927, 0.6363820541980352], [15.067238221591367, -3.444353504694927, 0.6363820541980352], [15.067238221591367, -3.444353504694927, 0.6363820541980352], [15.067238221591367, -3.444353504694927, 0.6363820541980352], [15.067238221591367, -3.444353504694927, 0.6363820541980352], [15.067238221591367, -3.444353504694927, 0.6363820541980352], [15.067238221591367, -3.444353504694927, 0.6363820541980352], [15.067238221591367, -3.444353504694927, 0.6363820541980352], [15.067238221591367, -3.444353504694927, 0.6363820541980352], [15.067238221591367, -3.444353504694927, 0.6363820541980352], [15.067238221591367, -3.444353504694927, 0.6363820541980352], [15.067238221591367, -3.444353504694927, 0.6363820541980352], [15.067238221591367, -3.444353504694927, 0.6363820541980352], [15.067238221591367, -3.444353504694927, 0.6363820541980352], [15.067238221591367, -3.444353504694927, 0.6363820541980352], [15.067238221591367, -3.444353504694927, 0.6363820541980352], [15.067238221591367, -3.444353504694927, 0.6363820541980352], [15.067238221591367, -3.444353504694927, 0.6363820541980352], [15.067238221591367, -3.444353504694927, 0.6363820541980352], [15.067238221591367, -3.444353504694927, 0.6363820541980352], [15.067238221591367, -3.444353504694927, 0.6363820541980352], [15.067238221591367, -3.444353504694927, 0.6363820541980352], [15.067238221591367, -3.444353504694927, 0.6363820541980352], [15.067238221591367, -3.444353504694927, 0.6363820541980352], [15.067238221591367, -3.444353504694927, 0.6363820541980352], [15.067238221591367, -3.444353504694927, 0.6363820541980352], [15.067238221591367, -3.444353504694927, 0.6363820541980352], [15.067238221591367, -3.444353504694927, 0.6363820541980352], [11.108193029575949, -12.84121581271747, 0.7363820541980352], [11.108193029575949, -12.84121581271747, 0.7363820541980352], [16.79551409963402, -4.96919832631143, 0.8363820541980351], [16.79551409963402, -4.96919832631143, 0.8363820541980351], [16.79551409963402, -4.96919832631143, 0.8363820541980351], [16.79551409963402, -4.96919832631143, 0.8363820541980351], [16.79551409963402, -4.96919832631143, 0.8363820541980351], [16.79551409963402, -4.96919832631143, 0.8363820541980351], [16.79551409963402, -4.96919832631143, 0.8363820541980351], [16.79551409963402, -4.96919832631143, 0.8363820541980351], [16.79551409963402, -4.96919832631143, 0.8363820541980351], [16.79551409963402, -4.96919832631143, 0.8363820541980351], [16.79551409963402, -4.96919832631143, 0.8363820541980351], [16.79551409963402, -4.96919832631143, 0.8363820541980351], [16.79551409963402, -4.96919832631143, 0.8363820541980351], [16.79551409963402, -4.96919832631143, 0.8363820541980351], [16.79551409963402, -4.96919832631143, 0.8363820541980351], [16.79551409963402, -4.96919832631143, 0.8363820541980351], [16.79551409963402, -4.96919832631143, 0.8363820541980351], [16.79551409963402, -4.96919832631143, 0.8363820541980351], [16.79551409963402, -4.96919832631143, 0.8363820541980351], [13.262791027635142, -13.956574480567197, 0.9363820541980351], [13.262791027635142, -13.956574480567197, 0.9363820541980351], [13.262791027635142, -13.956574480567197, 0.9363820541980351], [18.145648284567226, -5.582848897271299, 0.8363820541980351], [18.145648284567226, -5.582848897271299, 0.8363820541980351], [18.145648284567226, -5.582848897271299, 0.8363820541980351], [18.145648284567226, -5.582848897271299, 0.8363820541980351], [18.145648284567226, -5.582848897271299, 0.8363820541980351], [18.145648284567226, -5.582848897271299, 0.8363820541980351], [18.145648284567226, -5.582848897271299, 0.8363820541980351], [18.145648284567226, -5.582848897271299, 0.8363820541980351], [18.145648284567226, -5.582848897271299, 0.8363820541980351], [18.145648284567226, -5.582848897271299, 0.8363820541980351], [18.145648284567226, -5.582848897271299, 0.8363820541980351], [18.145648284567226, -5.582848897271299, 0.8363820541980351], [18.145648284567226, -5.582848897271299, 0.8363820541980351], [18.145648284567226, -5.582848897271299, 0.8363820541980351], [18.145648284567226, -5.582848897271299, 0.8363820541980351], [16.802238184069115, -9.814650956997369, 0.9363820541980351], [16.802238184069115, -9.814650956997369, 0.9363820541980351], [16.802238184069115, -9.814650956997369, 0.9363820541980351], [16.802238184069115, -9.814650956997369, 0.9363820541980351], [16.802238184069115, -9.814650956997369, 0.9363820541980351], [16.802238184069115, -9.814650956997369, 0.9363820541980351], [16.802238184069115, -9.814650956997369, 0.9363820541980351], [16.802238184069115, -9.814650956997369, 0.9363820541980351], [16.802238184069115, -9.814650956997369, 0.9363820541980351], [16.802238184069115, -9.814650956997369, 0.9363820541980351], [16.802238184069115, -9.814650956997369, 0.9363820541980351], [16.802238184069115, -9.814650956997369, 0.9363820541980351], [16.802238184069115, -9.814650956997369, 0.9363820541980351], [16.802238184069115, -9.814650956997369, 0.9363820541980351], [16.802238184069115, -9.814650956997369, 0.9363820541980351], [16.802238184069115, -9.814650956997369, 0.9363820541980351], [16.802238184069115, -9.814650956997369, 0.9363820541980351], [16.802238184069115, -9.814650956997369, 0.9363820541980351], [16.802238184069115, -9.814650956997369, 0.9363820541980351], [16.802238184069115, -9.814650956997369, 0.9363820541980351], [16.802238184069115, -9.814650956997369, 0.9363820541980351], [16.802238184069115, -9.814650956997369, 0.9363820541980351], [16.802238184069115, -9.814650956997369, 0.9363820541980351], [16.802238184069115, -9.814650956997369, 0.9363820541980351], [16.802238184069115, -9.814650956997369, 0.9363820541980351], [16.802238184069115, -9.814650956997369, 0.9363820541980351], [16.802238184069115, -9.814650956997369, 0.9363820541980351], [16.802238184069115, -9.814650956997369, 0.9363820541980351], [16.802238184069115, -9.814650956997369, 0.9363820541980351], [16.802238184069115, -9.814650956997369, 0.9363820541980351], [16.802238184069115, -9.814650956997369, 0.9363820541980351], [16.802238184069115, -9.814650956997369, 0.9363820541980351], [16.802238184069115, -9.814650956997369, 0.9363820541980351], [16.802238184069115, -9.814650956997369, 0.9363820541980351], [16.802238184069115, -9.814650956997369, 0.9363820541980351], [16.802238184069115, -9.814650956997369, 0.9363820541980351], [16.802238184069115, -9.814650956997369, 0.9363820541980351], [16.802238184069115, -9.814650956997369, 0.9363820541980351], [16.802238184069115, -9.814650956997369, 0.9363820541980351], [16.802238184069115, -9.814650956997369, 0.9363820541980351], [16.802238184069115, -9.814650956997369, 0.9363820541980351], [20.608161537248108, -2.571771139288799, 1.036382054198035], [20.608161537248108, -2.571771139288799, 1.036382054198035], [20.608161537248108, -2.571771139288799, 1.036382054198035], [20.608161537248108, -2.571771139288799, 1.036382054198035], [20.608161537248108, -2.571771139288799, 1.036382054198035], [20.608161537248108, -2.571771139288799, 1.036382054198035], [20.608161537248108, -2.571771139288799, 1.036382054198035], [20.608161537248108, -2.571771139288799, 1.036382054198035], [20.608161537248108, -2.571771139288799, 1.036382054198035], [20.608161537248108, -2.571771139288799, 1.036382054198035], [20.608161537248108, -2.571771139288799, 1.036382054198035], [20.608161537248108, -2.571771139288799, 1.036382054198035], [20.608161537248108, -2.571771139288799, 1.036382054198035], [20.608161537248108, -2.571771139288799, 1.036382054198035], [18.822607673474373, -10.857268596996931, 1.1363820541980352], [18.822607673474373, -10.857268596996931, 1.1363820541980352], [18.822607673474373, -10.857268596996931, 1.1363820541980352], [18.822607673474373, -10.857268596996931, 1.1363820541980352], [18.822607673474373, -10.857268596996931, 1.1363820541980352], [18.822607673474373, -10.857268596996931, 1.1363820541980352], [18.822607673474373, -10.857268596996931, 1.1363820541980352], [18.822607673474373, -10.857268596996931, 1.1363820541980352], [18.822607673474373, -10.857268596996931, 1.1363820541980352], [18.822607673474373, -10.857268596996931, 1.1363820541980352], [18.822607673474373, -10.857268596996931, 1.1363820541980352], [18.822607673474373, -10.857268596996931, 1.1363820541980352], [18.822607673474373, -10.857268596996931, 1.1363820541980352], [18.822607673474373, -10.857268596996931, 1.1363820541980352], [18.822607673474373, -10.857268596996931, 1.1363820541980352], [18.822607673474373, -10.857268596996931, 1.1363820541980352], [18.822607673474373, -10.857268596996931, 1.1363820541980352], [18.822607673474373, -10.857268596996931, 1.1363820541980352], [18.822607673474373, -10.857268596996931, 1.1363820541980352], [18.822607673474373, -10.857268596996931, 1.1363820541980352], [18.822607673474373, -10.857268596996931, 1.1363820541980352], [18.822607673474373, -10.857268596996931, 1.1363820541980352], [18.822607673474373, -10.857268596996931, 1.1363820541980352], [18.822607673474373, -10.857268596996931, 1.1363820541980352], [18.822607673474373, -10.857268596996931, 1.1363820541980352], [18.822607673474373, -10.857268596996931, 1.1363820541980352], [18.822607673474373, -10.857268596996931, 1.1363820541980352], [18.822607673474373, -10.857268596996931, 1.1363820541980352], [18.822607673474373, -10.857268596996931, 1.1363820541980352], [18.822607673474373, -10.857268596996931, 1.1363820541980352], [18.822607673474373, -10.857268596996931, 1.1363820541980352], [18.822607673474373, -10.857268596996931, 1.1363820541980352], [18.822607673474373, -10.857268596996931, 1.1363820541980352], [18.822607673474373, -10.857268596996931, 1.1363820541980352], [18.822607673474373, -10.857268596996931, 1.1363820541980352], [18.822607673474373, -10.857268596996931, 1.1363820541980352], [18.822607673474373, -10.857268596996931, 1.1363820541980352], [18.822607673474373, -10.857268596996931, 1.1363820541980352], [18.822607673474373, -10.857268596996931, 1.1363820541980352], [18.822607673474373, -10.857268596996931, 1.1363820541980352], [18.822607673474373, -10.857268596996931, 1.1363820541980352], [18.822607673474373, -10.857268596996931, 1.1363820541980352], [18.822607673474373, -10.857268596996931, 1.1363820541980352], [18.822607673474373, -10.857268596996931, 1.1363820541980352], [18.822607673474373, -10.857268596996931, 1.1363820541980352], [18.822607673474373, -10.857268596996931, 1.1363820541980352], [18.822607673474373, -10.857268596996931, 1.1363820541980352], [18.822607673474373, -10.857268596996931, 1.1363820541980352], [18.822607673474373, -10.857268596996931, 1.1363820541980352], [18.822607673474373, -10.857268596996931, 1.1363820541980352], [18.822607673474373, -10.857268596996931, 1.1363820541980352], [23.431590818513993, -1.5293321832176812, 1.036382054198035], [23.431590818513993, -1.5293321832176812, 1.036382054198035], [23.431590818513993, -1.5293321832176812, 1.036382054198035], [23.431590818513993, -1.5293321832176812, 1.036382054198035], [23.431590818513993, -1.5293321832176812, 1.036382054198035], [23.431590818513993, -1.5293321832176812, 1.036382054198035], [23.431590818513993, -1.5293321832176812, 1.036382054198035], [23.431590818513993, -1.5293321832176812, 1.036382054198035], [23.431590818513993, -1.5293321832176812, 1.036382054198035], [23.431590818513993, -1.5293321832176812, 1.036382054198035], [23.431590818513993, -1.5293321832176812, 1.036382054198035], [23.431590818513993, -1.5293321832176812, 1.036382054198035], [23.431590818513993, -1.5293321832176812, 1.036382054198035], [22.072179647041313, -7.590458244379351, 0.9363820541980351], [22.072179647041313, -7.590458244379351, 0.9363820541980351], [22.072179647041313, -7.590458244379351, 0.9363820541980351], [22.072179647041313, -7.590458244379351, 0.9363820541980351], [22.072179647041313, -7.590458244379351, 0.9363820541980351], [22.072179647041313, -7.590458244379351, 0.9363820541980351], [22.072179647041313, -7.590458244379351, 0.9363820541980351], [22.072179647041313, -7.590458244379351, 0.9363820541980351], [22.072179647041313, -7.590458244379351, 0.9363820541980351], [22.072179647041313, -7.590458244379351, 0.9363820541980351], [22.072179647041313, -7.590458244379351, 0.9363820541980351], [22.072179647041313, -7.590458244379351, 0.9363820541980351], [22.072179647041313, -7.590458244379351, 0.9363820541980351], [22.072179647041313, -7.590458244379351, 0.9363820541980351], [22.072179647041313, -7.590458244379351, 0.9363820541980351], [22.072179647041313, -7.590458244379351, 0.9363820541980351], [22.072179647041313, -7.590458244379351, 0.9363820541980351], [22.072179647041313, -7.590458244379351, 0.9363820541980351], [22.072179647041313, -7.590458244379351, 0.9363820541980351], [22.072179647041313, -7.590458244379351, 0.9363820541980351], [22.072179647041313, -7.590458244379351, 0.9363820541980351], [22.072179647041313, -7.590458244379351, 0.9363820541980351], [22.072179647041313, -7.590458244379351, 0.9363820541980351], [22.072179647041313, -7.590458244379351, 0.9363820541980351], [22.072179647041313, -7.590458244379351, 0.9363820541980351], [22.072179647041313, -7.590458244379351, 0.9363820541980351], [22.072179647041313, -7.590458244379351, 0.9363820541980351], [22.072179647041313, -7.590458244379351, 0.9363820541980351], [22.072179647041313, -7.590458244379351, 0.9363820541980351], [22.072179647041313, -7.590458244379351, 0.9363820541980351], [22.072179647041313, -7.590458244379351, 0.9363820541980351], [22.072179647041313, -7.590458244379351, 0.9363820541980351], [22.072179647041313, -7.590458244379351, 0.9363820541980351], [22.072179647041313, -7.590458244379351, 0.9363820541980351], [22.072179647041313, -7.590458244379351, 0.9363820541980351], [22.072179647041313, -7.590458244379351, 0.9363820541980351], [22.072179647041313, -7.590458244379351, 0.9363820541980351], [22.072179647041313, -7.590458244379351, 0.9363820541980351], [22.072179647041313, -7.590458244379351, 0.9363820541980351], [22.072179647041313, -7.590458244379351, 0.9363820541980351], [22.072179647041313, -7.590458244379351, 0.9363820541980351], [22.072179647041313, -7.590458244379351, 0.9363820541980351], [22.072179647041313, -7.590458244379351, 0.9363820541980351], [22.072179647041313, -7.590458244379351, 0.9363820541980351], [22.072179647041313, -7.590458244379351, 0.9363820541980351], [22.072179647041313, -7.590458244379351, 0.9363820541980351], [22.072179647041313, -7.590458244379351, 0.9363820541980351], [22.072179647041313, -7.590458244379351, 0.9363820541980351], [22.072179647041313, -7.590458244379351, 0.9363820541980351], [22.072179647041313, -7.590458244379351, 0.9363820541980351], [22.072179647041313, -7.590458244379351, 0.9363820541980351], [22.072179647041313, -7.590458244379351, 0.9363820541980351], [22.072179647041313, -7.590458244379351, 0.9363820541980351], [22.072179647041313, -7.590458244379351, 0.9363820541980351], [22.072179647041313, -7.590458244379351, 0.9363820541980351], [22.072179647041313, -7.590458244379351, 0.9363820541980351], [22.072179647041313, -7.590458244379351, 0.9363820541980351], [22.072179647041313, -7.590458244379351, 0.9363820541980351], [22.072179647041313, -7.590458244379351, 0.9363820541980351], [22.072179647041313, -7.590458244379351, 0.9363820541980351], [22.072179647041313, -7.590458244379351, 0.9363820541980351], [22.072179647041313, -7.590458244379351, 0.9363820541980351], [22.072179647041313, -7.590458244379351, 0.9363820541980351], [22.072179647041313, -7.590458244379351, 0.9363820541980351], [22.072179647041313, -7.590458244379351, 0.9363820541980351], [22.072179647041313, -7.590458244379351, 0.9363820541980351], [22.072179647041313, -7.590458244379351, 0.9363820541980351], [22.072179647041313, -7.590458244379351, 0.9363820541980351], [22.072179647041313, -7.590458244379351, 0.9363820541980351], [22.072179647041313, -7.590458244379351, 0.9363820541980351], [22.072179647041313, -7.590458244379351, 0.9363820541980351], [22.072179647041313, -7.590458244379351, 0.9363820541980351], [22.072179647041313, -7.590458244379351, 0.9363820541980351], [22.072179647041313, -7.590458244379351, 0.9363820541980351], [22.072179647041313, -7.590458244379351, 0.9363820541980351], [22.072179647041313, -7.590458244379351, 0.9363820541980351], [22.072179647041313, -7.590458244379351, 0.9363820541980351], [22.072179647041313, -7.590458244379351, 0.9363820541980351], [22.072179647041313, -7.590458244379351, 0.9363820541980351], [22.072179647041313, -7.590458244379351, 0.9363820541980351], [22.072179647041313, -7.590458244379351, 0.9363820541980351], [22.072179647041313, -7.590458244379351, 0.9363820541980351], [22.072179647041313, -7.590458244379351, 0.9363820541980351], [22.072179647041313, -7.590458244379351, 0.9363820541980351], [22.072179647041313, -7.590458244379351, 0.9363820541980351], [22.072179647041313, -7.590458244379351, 0.9363820541980351], [22.072179647041313, -7.590458244379351, 0.9363820541980351], [22.072179647041313, -7.590458244379351, 0.9363820541980351], [22.072179647041313, -7.590458244379351, 0.9363820541980351], [22.072179647041313, -7.590458244379351, 0.9363820541980351], [22.072179647041313, -7.590458244379351, 0.9363820541980351], [22.072179647041313, -7.590458244379351, 0.9363820541980351], [22.072179647041313, -7.590458244379351, 0.9363820541980351], [22.072179647041313, -7.590458244379351, 0.9363820541980351], [22.072179647041313, -7.590458244379351, 0.9363820541980351], [22.072179647041313, -7.590458244379351, 0.9363820541980351], [22.072179647041313, -7.590458244379351, 0.9363820541980351], [22.072179647041313, -7.590458244379351, 0.9363820541980351], [22.072179647041313, -7.590458244379351, 0.9363820541980351]]