[[7.6755852478251985, -4.0338125042312605, 0.060803301501283574], [7.6755852478251985, -4.0338125042312605, 0.060803301501283574], [7.6755852478251985, -4.0338125042312605, 0.060803301501283574], [7.6755852478251985, -4.0338125042312605, 0.060803301501283574], [7.6755852478251985, -4.0338125042312605, 0.060803301501283574], [7.6755852478251985, -4.0338125042312605, 0.060803301501283574], [7.6755852478251985, -4.0338125042312605, 0.060803301501283574], [7.6755852478251985, -4.0338125042312605, 0.060803301501283574], [7.6755852478251985, -4.0338125042312605, 0.060803301501283574], [7.6755852478251985, -4.0338125042312605, 0.060803301501283574], [8.977705706514342, -1.5113708374962136, 0.16080330150128358], [8.977705706514342, -1.5113708374962136, 0.16080330150128358], [8.977705706514342, -1.5113708374962136, 0.16080330150128358], [8.977705706514342, -1.5113708374962136, 0.16080330150128358], [8.977705706514342, -1.5113708374962136, 0.16080330150128358], [8.977705706514342, -1.5113708374962136, 0.16080330150128358], [8.977705706514342, -1.5113708374962136, 0.16080330150128358], [8.977705706514342, -1.5113708374962136, 0.16080330150128358], [8.977705706514342, -1.5113708374962136, 0.16080330150128358], [8.977705706514342, -1.5113708374962136, 0.16080330150128358], [8.977705706514342, -1.5113708374962136, 0.16080330150128358], [8.977705706514342, -1.5113708374962136, 0.16080330150128358], [8.977705706514342, -1.5113708374962136, 0.16080330150128358], [8.977705706514342, -1.5113708374962136, 0.16080330150128358], [6.156756367722323, -11.475515093561368, 0.060803301501283574], [6.156756367722323, -11.475515093561368, 0.060803301501283574], [12.714851853480749, -4.900104426495987, 0.16080330150128358], [12.714851853480749, -4.900104426495987, 0.16080330150128358], [12.714851853480749, -4.900104426495987, 0.16080330150128358], [12.714851853480749, -4.900104426495987, 0.16080330150128358], [12.714851853480749, -4.900104426495987, 0.16080330150128358], [12.714851853480749, -4.900104426495987, 0.16080330150128358], [12.714851853480749, -4.900104426495987, 0.16080330150128358], [12.714851853480749, -4.900104426495987, 0.16080330150128358], [12.714851853480749, -4.900104426495987, 0.16080330150128358], [12.714851853480749, -4.900104426495987, 0.16080330150128358], [8.557973252258904, -14.756852475184488, 0.2608033015012836], [8.557973252258904, -14.756852475184488, 0.2608033015012836], [8.557973252258904, -14.756852475184488, 0.2608033015012836], [8.557973252258904, -14.756852475184488, 0.2608033015012836], [13.749049246394765, -11.286412325857466, 0.1608033015012836], [13.749049246394765, -11.286412325857466, 0.1608033015012836], [13.749049246394765, -11.286412325857466, 0.1608033015012836], [13.749049246394765, -11.286412325857466, 0.1608033015012836], [18.358263709834358, -2.902059784299153, 0.2608033015012836], [18.358263709834358, -2.902059784299153, 0.2608033015012836], [18.358263709834358, -2.902059784299153, 0.2608033015012836], [18.358263709834358, -2.902059784299153, 0.2608033015012836], [18.358263709834358, -2.902059784299153, 0.2608033015012836], [18.358263709834358, -2.902059784299153, 0.2608033015012836], [18.358263709834358, -2.902059784299153, 0.2608033015012836], [15.089709942951684, -11.50093936269103, 0.3608033015012836], [16.939276878475397, -8.540061173995984, 0.46080330150128357], [16.939276878475397, -8.540061173995984, 0.46080330150128357], [16.939276878475397, -8.540061173995984, 0.46080330150128357], [16.939276878475397, -8.540061173995984, 0.46080330150128357], [18.167840460287948, -5.9488142125564405, 0.5608033015012835], [18.167840460287948, -5.9488142125564405, 0.5608033015012835], [18.167840460287948, -5.9488142125564405, 0.5608033015012835], [18.167840460287948, -5.9488142125564405, 0.5608033015012835], [18.167840460287948, -5.9488142125564405, 0.5608033015012835], [18.167840460287948, -5.9488142125564405, 0.5608033015012835], [18.167840460287948, -5.9488142125564405, 0.5608033015012835], [18.167840460287948, -5.9488142125564405, 0.5608033015012835], [18.167840460287948, -5.9488142125564405, 0.5608033015012835], [18.167840460287948, -5.9488142125564405, 0.5608033015012835], [18.167840460287948, -5.9488142125564405, 0.5608033015012835], [18.167840460287948, -5.9488142125564405, 0.5608033015012835], [18.167840460287948, -5.9488142125564405, 0.5608033015012835], [18.167840460287948, -5.9488142125564405, 0.5608033015012835], [18.167840460287948, -5.9488142125564405, 0.5608033015012835], [18.167840460287948, -5.9488142125564405, 0.5608033015012835], [18.167840460287948, -5.9488142125564405, 0.5608033015012835], [18.167840460287948, -5.9488142125564405, 0.5608033015012835], [18.167840460287948, -5.9488142125564405, 0.5608033015012835], [18.167840460287948, -5.9488142125564405, 0.5608033015012835], [18.167840460287948, -5.9488142125564405, 0.5608033015012835], [18.167840460287948, -5.9488142125564405, 0.5608033015012835], [18.167840460287948, -5.9488142125564405, 0.5608033015012835], [18.167840460287948, -5.9488142125564405, 0.5608033015012835], [18.167840460287948, -5.9488142125564405, 0.5608033015012835], [18.167840460287948, -5.9488142125564405, 0.5608033015012835], [18.167840460287948, -5.9488142125564405, 0.5608033015012835], [18.167840460287948, -5.9488142125564405, 0.5608033015012835], [18.167840460287948, -5.9488142125564405, 0.5608033015012835], [18.167840460287948, -5.9488142125564405, 0.5608033015012835], [18.167840460287948, -5.9488142125564405, 0.5608033015012835], [18.167840460287948, -5.9488142125564405, 0.5608033015012835], [18.167840460287948, -5.9488142125564405, 0.5608033015012835], [18.167840460287948, -5.9488142125564405, 0.5608033015012835], [18.167840460287948, -5.9488142125564405, 0.5608033015012835], [18.167840460287948, -5.9488142125564405, 0.5608033015012835], [18.167840460287948, -5.9488142125564405, 0.5608033015012835], [18.167840460287948, -5.9488142125564405, 0.5608033015012835], [18.167840460287948, -5.9488142125564405, 0.5608033015012835], [18.167840460287948, -5.9488142125564405, 0.5608033015012835], [18.167840460287948, -5.9488142125564405, 0.5608033015012835], [18.167840460287948, -5.9488142125564405, 0.5608033015012835], [18.167840460287948, -5.9488142125564405, 0.5608033015012835], [18.167840460287948, -5.9488142125564405, 0.5608033015012835], [18.167840460287948, -5.9488142125564405, 0.5608033015012835], [18.167840460287948, -5.9488142125564405, 0.5608033015012835], [18.167840460287948, -5.9488142125564405, 0.5608033015012835], [18.167840460287948, -5.9488142125564405, 0.5608033015012835], [18.167840460287948, -5.9488142125564405, 0.5608033015012835], [18.167840460287948, -5.9488142125564405, 0.5608033015012835], [17.453724557350803, -8.000935664749743, 0.46080330150128357], [17.453724557350803, -8.000935664749743, 0.46080330150128357], [17.453724557350803, -8.000935664749743, 0.46080330150128357], [17.453724557350803, -8.000935664749743, 0.46080330150128357], [17.453724557350803, -8.000935664749743, 0.46080330150128357], [17.453724557350803, -8.000935664749743, 0.46080330150128357], [17.453724557350803, -8.000935664749743, 0.46080330150128357], [17.453724557350803, -8.000935664749743, 0.46080330150128357], [17.453724557350803, -8.000935664749743, 0.46080330150128357], [17.453724557350803, -8.000935664749743, 0.46080330150128357], [17.453724557350803, -8.000935664749743, 0.46080330150128357], [17.453724557350803, -8.000935664749743, 0.46080330150128357], [17.453724557350803, -8.000935664749743, 0.46080330150128357], [17.453724557350803, -8.000935664749743, 0.46080330150128357], [17.453724557350803, -8.000935664749743, 0.46080330150128357], [17.453724557350803, -8.000935664749743, 0.46080330150128357], [17.453724557350803, -8.000935664749743, 0.46080330150128357], [17.453724557350803, -8.000935664749743, 0.46080330150128357], [17.453724557350803, -8.000935664749743, 0.46080330150128357], [17.453724557350803, -8.000935664749743, 0.46080330150128357], [17.453724557350803, -8.000935664749743, 0.46080330150128357], [17.453724557350803, -8.000935664749743, 0.46080330150128357], [17.453724557350803, -8.000935664749743, 0.46080330150128357], [17.453724557350803, -8.000935664749743, 0.46080330150128357], [17.453724557350803, -8.000935664749743, 0.46080330150128357], [17.453724557350803, -8.000935664749743, 0.46080330150128357], [17.453724557350803, -8.000935664749743, 0.46080330150128357], [17.453724557350803, -8.000935664749743, 0.46080330150128357], [17.453724557350803, -8.000935664749743, 0.46080330150128357], [17.453724557350803, -8.000935664749743, 0.46080330150128357], [17.453724557350803, -8.000935664749743, 0.46080330150128357], [17.453724557350803, -8.000935664749743, 0.46080330150128357], [17.453724557350803, -8.000935664749743, 0.46080330150128357], [17.453724557350803, -8.000935664749743, 0.46080330150128357], [17.453724557350803, -8.000935664749743, 0.46080330150128357], [17.453724557350803, -8.000935664749743, 0.46080330150128357], [17.453724557350803, -8.000935664749743, 0.46080330150128357], [17.453724557350803, -8.000935664749743, 0.46080330150128357], [17.453724557350803, -8.000935664749743, 0.46080330150128357], [17.453724557350803, -8.000935664749743, 0.46080330150128357], [17.453724557350803, -8.000935664749743, 0.46080330150128357], [17.453724557350803, -8.000935664749743, 0.46080330150128357], [17.453724557350803, -8.000935664749743, 0.46080330150128357], [17.453724557350803, -8.000935664749743, 0.46080330150128357], [17.453724557350803, -8.000935664749743, 0.46080330150128357], [17.453724557350803, -8.000935664749743, 0.46080330150128357], [17.453724557350803, -8.000935664749743, 0.46080330150128357], [17.453724557350803, -8.000935664749743, 0.46080330150128357], [17.453724557350803, -8.000935664749743, 0.46080330150128357], [17.453724557350803, -8.000935664749743, 0.46080330150128357], [17.453724557350803, -8.000935664749743, 0.46080330150128357], [17.453724557350803, -8.000935664749743, 0.46080330150128357], [17.453724557350803, -8.000935664749743, 0.46080330150128357], [17.453724557350803, -8.000935664749743, 0.46080330150128357], [17.453724557350803, -8.000935664749743, 0.46080330150128357], [17.453724557350803, -8.000935664749743, 0.46080330150128357], [17.453724557350803, -8.000935664749743, 0.46080330150128357], [17.453724557350803, -8.000935664749743, 0.46080330150128357], [17.453724557350803, -8.000935664749743, 0.46080330150128357], [17.453724557350803, -8.000935664749743, 0.46080330150128357], [17.453724557350803, -8.000935664749743, 0.46080330150128357], [17.453724557350803, -8.000935664749743, 0.46080330150128357], [17.453724557350803, -8.000935664749743, 0.46080330150128357], [17.453724557350803, -8.000935664749743, 0.46080330150128357], [17.453724557350803, -8.000935664749743, 0.46080330150128357], [17.453724557350803, -8.000935664749743, 0.46080330150128357], [17.453724557350803, -8.000935664749743, 0.46080330150128357], [17.453724557350803, -8.000935664749743, 0.46080330150128357], [17.453724557350803, -8.000935664749743, 0.46080330150128357], [17.453724557350803, -8.000935664749743, 0.46080330150128357], [17.453724557350803, -8.000935664749743, 0.46080330150128357], [17.453724557350803, -8.000935664749743, 0.46080330150128357], [17.453724557350803, -8.000935664749743, 0.46080330150128357], [17.453724557350803, -8.000935664749743, 0.46080330150128357], [17.453724557350803, -8.000935664749743, 0.46080330150128357], [19.908646224580764, -2.5765015980584796, 0.3608033015012836], [19.908646224580764, -2.5765015980584796, 0.3608033015012836], [19.908646224580764, -2.5765015980584796, 0.3608033015012836], [19.908646224580764, -2.5765015980584796, 0.3608033015012836], [19.908646224580764, -2.5765015980584796, 0.3608033015012836], [19.908646224580764, -2.5765015980584796, 0.3608033015012836], [19.908646224580764, -2.5765015980584796, 0.3608033015012836], [19.908646224580764, -2.5765015980584796, 0.3608033015012836], [19.908646224580764, -2.5765015980584796, 0.3608033015012836], [19.908646224580764, -2.5765015980584796, 0.3608033015012836], [19.908646224580764, -2.5765015980584796, 0.3608033015012836], [19.908646224580764, -2.5765015980584796, 0.3608033015012836], [19.908646224580764, -2.5765015980584796, 0.3608033015012836], [19.908646224580764, -2.5765015980584796, 0.3608033015012836], [19.908646224580764, -2.5765015980584796, 0.3608033015012836], [19.908646224580764, -2.5765015980584796, 0.3608033015012836], [19.908646224580764, -2.5765015980584796, 0.3608033015012836], [19.908646224580764, -2.5765015980584796, 0.3608033015012836], [19.908646224580764, -2.5765015980584796, 0.3608033015012836], [17.699146024295107, -10.684310891798308, 0.2608033015012836], [21.599326490959132, -2.879884097383453, 0.3608033015012836], [21.599326490959132, -2.879884097383453, 0.3608033015012836], [21.599326490959132, -2.879884097383453, 0.3608033015012836], [21.599326490959132, -2.879884097383453, 0.3608033015012836], [21.599326490959132, -2.879884097383453, 0.3608033015012836], [21.599326490959132, -2.879884097383453, 0.3608033015012836], [21.599326490959132, -2.879884097383453, 0.3608033015012836], [21.599326490959132, -2.879884097383453, 0.3608033015012836], [21.599326490959132, -2.879884097383453, 0.3608033015012836], [21.599326490959132, -2.879884097383453, 0.3608033015012836], [21.599326490959132, -2.879884097383453, 0.3608033015012836], [21.599326490959132, -2.879884097383453, 0.3608033015012836], [21.599326490959132, -2.879884097383453, 0.3608033015012836], [21.599326490959132, -2.879884097383453, 0.3608033015012836], [20.487894257127152, -7.086564704175834, 0.46080330150128357], [20.487894257127152, -7.086564704175834, 0.46080330150128357], [20.487894257127152, -7.086564704175834, 0.46080330150128357], [20.487894257127152, -7.086564704175834, 0.46080330150128357], [20.487894257127152, -7.086564704175834, 0.46080330150128357], [20.487894257127152, -7.086564704175834, 0.46080330150128357], [20.487894257127152, -7.086564704175834, 0.46080330150128357], [20.487894257127152, -7.086564704175834, 0.46080330150128357], [19.401558591970268, -9.857000985570355, 0.5608033015012835], [19.401558591970268, -9.857000985570355, 0.5608033015012835], [19.401558591970268, -9.857000985570355, 0.5608033015012835], [19.401558591970268, -9.857000985570355, 0.5608033015012835], [19.401558591970268, -9.857000985570355, 0.5608033015012835], [19.401558591970268, -9.857000985570355, 0.5608033015012835], [23.715807630421335, -0.5075694992149042, 0.6608033015012835], [23.715807630421335, -0.5075694992149042, 0.6608033015012835], [23.715807630421335, -0.5075694992149042, 0.6608033015012835], [23.715807630421335, -0.5075694992149042, 0.6608033015012835], [23.715807630421335, -0.5075694992149042, 0.6608033015012835], [23.715807630421335, -0.5075694992149042, 0.6608033015012835], [23.715807630421335, -0.5075694992149042, 0.6608033015012835], [23.715807630421335, -0.5075694992149042, 0.6608033015012835], [23.715807630421335, -0.5075694992149042, 0.6608033015012835], [23.715807630421335, -0.5075694992149042, 0.6608033015012835], [23.715807630421335, -0.5075694992149042, 0.6608033015012835], [23.715807630421335, -0.5075694992149042, 0.6608033015012835], [23.715807630421335, -0.5075694992149042, 0.6608033015012835], [23.715807630421335, -0.5075694992149042, 0.6608033015012835], [21.431005663392092, -6.676626806665971, 0.7608033015012835], [21.431005663392092, -6.676626806665971, 0.7608033015012835], [21.431005663392092, -6.676626806665971, 0.7608033015012835], [21.431005663392092, -6.676626806665971, 0.7608033015012835], [21.431005663392092, -6.676626806665971, 0.7608033015012835], [21.431005663392092, -6.676626806665971, 0.7608033015012835], [21.431005663392092, -6.676626806665971, 0.7608033015012835], [21.431005663392092, -6.676626806665971, 0.7608033015012835], [19.770031145483145, -11.662099621965641, 0.6608033015012835], [19.770031145483145, -11.662099621965641, 0.6608033015012835], [19.770031145483145, -11.662099621965641, 0.6608033015012835], [19.770031145483145, -11.662099621965641, 0.6608033015012835], [19.770031145483145, -11.662099621965641, 0.6608033015012835], [19.770031145483145, -11.662099621965641, 0.6608033015012835], [19.770031145483145, -11.662099621965641, 0.6608033015012835], [19.770031145483145, -11.662099621965641, 0.6608033015012835], [19.770031145483145, -11.662099621965641, 0.6608033015012835], [19.770031145483145, -11.662099621965641, 0.6608033015012835], [19.770031145483145, -11.662099621965641, 0.6608033015012835], [19.770031145483145, -11.662099621965641, 0.6608033015012835], [19.770031145483145, -11.662099621965641, 0.6608033015012835], [19.770031145483145, -11.662099621965641, 0.6608033015012835], [19.770031145483145, -11.662099621965641, 0.6608033015012835], [19.770031145483145, -11.662099621965641, 0.6608033015012835], [19.770031145483145, -11.662099621965641, 0.6608033015012835], [19.770031145483145, -11.662099621965641, 0.6608033015012835], [19.770031145483145, -11.662099621965641, 0.6608033015012835], [19.770031145483145, -11.662099621965641, 0.6608033015012835], [19.770031145483145, -11.662099621965641, 0.6608033015012835], [19.770031145483145, -11.662099621965641, 0.6608033015012835], [19.770031145483145, -11.662099621965641, 0.6608033015012835], [19.770031145483145, -11.662099621965641, 0.6608033015012835], [19.770031145483145, -11.662099621965641, 0.6608033015012835], [19.770031145483145, -11.662099621965641, 0.6608033015012835], [19.770031145483145, -11.662099621965641, 0.6608033015012835], [19.770031145483145, -11.662099621965641, 0.6608033015012835], [19.770031145483145, -11.662099621965641, 0.6608033015012835], [19.770031145483145, -11.662099621965641, 0.6608033015012835], [19.770031145483145, -11.662099621965641, 0.6608033015012835], [19.770031145483145, -11.662099621965641, 0.6608033015012835], [19.770031145483145, -11.662099621965641, 0.6608033015012835], [19.770031145483145, -11.662099621965641, 0.6608033015012835], [19.770031145483145, -11.662099621965641, 0.6608033015012835], [19.770031145483145, -11.662099621965641, 0.6608033015012835], [19.770031145483145, -11.662099621965641, 0.6608033015012835], [19.770031145483145, -11.662099621965641, 0.6608033015012835], [19.770031145483145, -11.662099621965641, 0.6608033015012835], [19.770031145483145, -11.662099621965641, 0.6608033015012835], [19.770031145483145, -11.662099621965641, 0.6608033015012835], [19.770031145483145, -11.662099621965641, 0.6608033015012835], [19.770031145483145, -11.662099621965641, 0.6608033015012835], [19.770031145483145, -11.662099621965641, 0.6608033015012835], [19.770031145483145, -11.662099621965641, 0.6608033015012835], [24.543264931143348, -2.323844739437323, 0.7608033015012835], [24.543264931143348, -2.323844739437323, 0.7608033015012835], [22.046398295017973, -11.116536619052566, 0.8608033015012835], [22.046398295017973, -11.116536619052566, 0.8608033015012835], [22.046398295017973, -11.116536619052566, 0.8608033015012835], [25.601576232387753, -3.999074097958701, 0.7608033015012835], [25.601576232387753, -3.999074097958701, 0.7608033015012835], [25.601576232387753, -3.999074097958701, 0.7608033015012835], [25.601576232387753, -3.999074097958701, 0.7608033015012835], [25.601576232387753, -3.999074097958701, 0.7608033015012835], [25.601576232387753, -3.999074097958701, 0.7608033015012835], [25.601576232387753, -3.999074097958701, 0.7608033015012835], [25.601576232387753, -3.999074097958701, 0.7608033015012835], [25.601576232387753, -3.999074097958701, 0.7608033015012835], [25.601576232387753, -3.999074097958701, 0.7608033015012835], [25.601576232387753, -3.999074097958701, 0.7608033015012835], [25.601576232387753, -3.999074097958701, 0.7608033015012835], [25.601576232387753, -3.999074097958701, 0.7608033015012835], [25.601576232387753, -3.999074097958701, 0.7608033015012835], [25.601576232387753, -3.999074097958701, 0.7608033015012835], [24.30829209903342, -10.014533817082135, 0.6608033015012835], [24.30829209903342, -10.014533817082135, 0.6608033015012835], [24.30829209903342, -10.014533817082135, 0.6608033015012835], [24.30829209903342, -10.014533817082135, 0.6608033015012835], [24.30829209903342, -10.014533817082135, 0.6608033015012835], [24.30829209903342, -10.014533817082135, 0.6608033015012835], [24.30829209903342, -10.014533817082135, 0.6608033015012835], [24.30829209903342, -10.014533817082135, 0.6608033015012835], [24.30829209903342, -10.014533817082135, 0.6608033015012835], [24.30829209903342, -10.014533817082135, 0.6608033015012835], [24.30829209903342, -10.014533817082135, 0.6608033015012835], [24.30829209903342, -10.014533817082135, 0.6608033015012835], [24.30829209903342, -10.014533817082135, 0.6608033015012835], [24.30829209903342, -10.014533817082135, 0.6608033015012835], [24.30829209903342, -10.014533817082135, 0.6608033015012835], [24.30829209903342, -10.014533817082135, 0.6608033015012835], [24.30829209903342, -10.014533817082135, 0.6608033015012835], [24.30829209903342, -10.014533817082135, 0.6608033015012835], [24.30829209903342, -10.014533817082135, 0.6608033015012835], [24.30829209903342, -10.014533817082135, 0.6608033015012835], [24.30829209903342, -10.014533817082135, 0.6608033015012835], [24.30829209903342, -10.014533817082135, 0.6608033015012835], [24.30829209903342, -10.014533817082135, 0.6608033015012835], [24.30829209903342, -10.014533817082135, 0.6608033015012835], [24.30829209903342, -10.014533817082135, 0.6608033015012835], [24.30829209903342, -10.014533817082135, 0.6608033015012835], [24.30829209903342, -10.014533817082135, 0.6608033015012835], [24.30829209903342, -10.014533817082135, 0.6608033015012835], [24.30829209903342, -10.014533817082135, 0.6608033015012835], [24.30829209903342, -10.014533817082135, 0.6608033015012835], [24.30829209903342, -10.014533817082135, 0.6608033015012835], [24.30829209903342, -10.014533817082135, 0.6608033015012835], [24.30829209903342, -10.014533817082135, 0.6608033015012835], [24.30829209903342, -10.014533817082135, 0.6608033015012835], [24.30829209903342, -10.014533817082135, 0.6608033015012835], [24.30829209903342, -10.014533817082135, 0.6608033015012835], [24.30829209903342, -10.014533817082135, 0.6608033015012835], [24.30829209903342, -10.014533817082135, 0.6608033015012835], [24.30829209903342, -10.014533817082135, 0.6608033015012835], [24.30829209903342, -10.014533817082135, 0.6608033015012835], [24.30829209903342, -10.014533817082135, 0.6608033015012835], [24.30829209903342, -10.014533817082135, 0.6608033015012835], [24.30829209903342, -10.014533817082135, 0.6608033015012835], [24.30829209903342, -10.014533817082135, 0.6608033015012835], [24.30829209903342, -10.014533817082135, 0.6608033015012835], [24.30829209903342, -10.014533817082135, 0.6608033015012835], [24.30829209903342, -10.014533817082135, 0.6608033015012835], [24.30829209903342, -10.014533817082135, 0.6608033015012835], [24.30829209903342, -10.014533817082135, 0.6608033015012835], [24.30829209903342, -10.014533817082135, 0.6608033015012835], [24.30829209903342, -10.014533817082135, 0.6608033015012835], [24.30829209903342, -10.014533817082135, 0.6608033015012835], [24.30829209903342, -10.014533817082135, 0.6608033015012835], [24.30829209903342, -10.014533817082135, 0.6608033015012835], [24.30829209903342, -10.014533817082135, 0.6608033015012835], [24.30829209903342, -10.014533817082135, 0.6608033015012835], [24.30829209903342, -10.014533817082135, 0.6608033015012835], [24.30829209903342, -10.014533817082135, 0.6608033015012835], [24.30829209903342, -10.014533817082135, 0.6608033015012835], [24.30829209903342, -10.014533817082135, 0.6608033015012835], [24.30829209903342, -10.014533817082135, 0.6608033015012835], [24.30829209903342, -10.014533817082135, 0.6608033015012835], [24.30829209903342, -10.014533817082135, 0.6608033015012835], [24.30829209903342, -10.014533817082135, 0.6608033015012835], [24.30829209903342, -10.014533817082135, 0.6608033015012835], [24.30829209903342, -10.014533817082135, 0.6608033015012835], [24.30829209903342, -10.014533817082135, 0.6608033015012835], [24.30829209903342, -10.014533817082135, 0.6608033015012835], [24.30829209903342, -10.014533817082135, 0.6608033015012835], [24.30829209903342, -10.014533817082135, 0.6608033015012835], [24.30829209903342, -10.014533817082135, 0.6608033015012835], [24.30829209903342, -10.014533817082135, 0.6608033015012835], [24.30829209903342, -10.014533817082135, 0.6608033015012835], [24.30829209903342, -10.014533817082135, 0.6608033015012835], [24.30829209903342, -10.014533817082135, 0.6608033015012835], [24.30829209903342, -10.014533817082135, 0.6608033015012835], [24.30829209903342, -10.014533817082135, 0.6608033015012835], [24.30829209903342, -10.014533817082135, 0.6608033015012835], [24.30829209903342, -10.014533817082135, 0.6608033015012835], [24.30829209903342, -10.014533817082135, 0.6608033015012835], [24.30829209903342, -10.014533817082135, 0.6608033015012835], [24.30829209903342, -10.014533817082135, 0.6608033015012835], [24.30829209903342, -10.014533817082135, 0.6608033015012835], [24.30829209903342, -10.014533817082135, 0.6608033015012835]]