[[0.4416112592281165, -0.4567174110037111, 0.45867823623236803], [0.4416112592281165, -0.4567174110037111, 0.45867823623236803], [6.9108150660744885, 6.121648501300756, 0.35867823623236805], [8.502388587943448, -0.5625829031882592, 0.2586782362323681], [8.502388587943448, -0.5625829031882592, 0.2586782362323681], [8.502388587943448, -0.5625829031882592, 0.2586782362323681], [8.502388587943448, -0.5625829031882592, 0.2586782362323681], [8.502388587943448, -0.5625829031882592, 0.2586782362323681], [8.502388587943448, -0.5625829031882592, 0.2586782362323681], [8.502388587943448, -0.5625829031882592, 0.2586782362323681], [8.502388587943448, -0.5625829031882592, 0.2586782362323681], [8.502388587943448, -0.5625829031882592, 0.2586782362323681], [8.502388587943448, -0.5625829031882592, 0.2586782362323681], [8.502388587943448, -0.5625829031882592, 0.2586782362323681], [8.502388587943448, -0.5625829031882592, 0.2586782362323681], [8.502388587943448, -0.5625829031882592, 0.2586782362323681], [8.502388587943448, -0.5625829031882592, 0.2586782362323681], [8.502388587943448, -0.5625829031882592, 0.2586782362323681], [8.502388587943448, -0.5625829031882592, 0.2586782362323681], [6.398237092185489, -7.522785624448965, 0.15867823623236807], [6.398237092185489, -7.522785624448965, 0.15867823623236807], [11.075141259284962, -3.291313556896318, 0.2586782362323681], [11.075141259284962, -3.291313556896318, 0.2586782362323681], [11.075141259284962, -3.291313556896318, 0.2586782362323681], [11.075141259284962, -3.291313556896318, 0.2586782362323681], [11.075141259284962, -3.291313556896318, 0.2586782362323681], [11.075141259284962, -3.291313556896318, 0.2586782362323681], [11.075141259284962, -3.291313556896318, 0.2586782362323681], [11.075141259284962, -3.291313556896318, 0.2586782362323681], [11.075141259284962, -3.291313556896318, 0.2586782362323681], [11.075141259284962, -3.291313556896318, 0.2586782362323681], [11.075141259284962, -3.291313556896318, 0.2586782362323681], [11.075141259284962, -3.291313556896318, 0.2586782362323681], [11.075141259284962, -3.291313556896318, 0.2586782362323681], [11.075141259284962, -3.291313556896318, 0.2586782362323681], [11.075141259284962, -3.291313556896318, 0.2586782362323681], [11.075141259284962, -3.291313556896318, 0.2586782362323681], [11.075141259284962, -3.291313556896318, 0.2586782362323681], [11.075141259284962, -3.291313556896318, 0.2586782362323681], [11.075141259284962, -3.291313556896318, 0.2586782362323681], [11.075141259284962, -3.291313556896318, 0.2586782362323681], [11.075141259284962, -3.291313556896318, 0.2586782362323681], [11.075141259284962, -3.291313556896318, 0.2586782362323681], [11.075141259284962, -3.291313556896318, 0.2586782362323681], [11.075141259284962, -3.291313556896318, 0.2586782362323681], [11.075141259284962, -3.291313556896318, 0.2586782362323681], [11.075141259284962, -3.291313556896318, 0.2586782362323681], [11.075141259284962, -3.291313556896318, 0.2586782362323681], [11.075141259284962, -3.291313556896318, 0.2586782362323681], [11.075141259284962, -3.291313556896318, 0.2586782362323681], [11.075141259284962, -3.291313556896318, 0.2586782362323681], [11.075141259284962, -3.291313556896318, 0.2586782362323681], [11.075141259284962, -3.291313556896318, 0.2586782362323681], [11.075141259284962, -3.291313556896318, 0.2586782362323681], [11.075141259284962, -3.291313556896318, 0.2586782362323681], [11.075141259284962, -3.291313556896318, 0.2586782362323681], [11.075141259284962, -3.291313556896318, 0.2586782362323681], [11.075141259284962, -3.291313556896318, 0.2586782362323681], [11.075141259284962, -3.291313556896318, 0.2586782362323681], [11.075141259284962, -3.291313556896318, 0.2586782362323681], [11.075141259284962, -3.291313556896318, 0.2586782362323681], [11.075141259284962, -3.291313556896318, 0.2586782362323681], [11.075141259284962, -3.291313556896318, 0.2586782362323681], [11.075141259284962, -3.291313556896318, 0.2586782362323681], [11.075141259284962, -3.291313556896318, 0.2586782362323681], [11.075141259284962, -3.291313556896318, 0.2586782362323681], [11.075141259284962, -3.291313556896318, 0.2586782362323681], [11.075141259284962, -3.291313556896318, 0.2586782362323681], [11.075141259284962, -3.291313556896318, 0.2586782362323681], [11.075141259284962, -3.291313556896318, 0.2586782362323681], [11.075141259284962, -3.291313556896318, 0.2586782362323681], [11.075141259284962, -3.291313556896318, 0.2586782362323681], [11.075141259284962, -3.291313556896318, 0.2586782362323681], [11.075141259284962, -3.291313556896318, 0.2586782362323681], [11.075141259284962, -3.291313556896318, 0.2586782362323681], [11.075141259284962, -3.291313556896318, 0.2586782362323681], [11.075141259284962, -3.291313556896318, 0.2586782362323681], [11.075141259284962, -3.291313556896318, 0.2586782362323681], [11.075141259284962, -3.291313556896318, 0.2586782362323681], [11.075141259284962, -3.291313556896318, 0.2586782362323681], [11.075141259284962, -3.291313556896318, 0.2586782362323681], [11.075141259284962, -3.291313556896318, 0.2586782362323681], [11.075141259284962, -3.291313556896318, 0.2586782362323681], [11.075141259284962, -3.291313556896318, 0.2586782362323681], [11.075141259284962, -3.291313556896318, 0.2586782362323681], [11.075141259284962, -3.291313556896318, 0.2586782362323681], [11.075141259284962, -3.291313556896318, 0.2586782362323681], [11.075141259284962, -3.291313556896318, 0.2586782362323681], [11.075141259284962, -3.291313556896318, 0.2586782362323681], [11.075141259284962, -3.291313556896318, 0.2586782362323681], [11.075141259284962, -3.291313556896318, 0.2586782362323681], [11.075141259284962, -3.291313556896318, 0.2586782362323681], [11.075141259284962, -3.291313556896318, 0.2586782362323681], [11.075141259284962, -3.291313556896318, 0.2586782362323681], [11.075141259284962, -3.291313556896318, 0.2586782362323681], [11.075141259284962, -3.291313556896318, 0.2586782362323681], [11.075141259284962, -3.291313556896318, 0.2586782362323681], [11.075141259284962, -3.291313556896318, 0.2586782362323681], [11.075141259284962, -3.291313556896318, 0.2586782362323681], [11.075141259284962, -3.291313556896318, 0.2586782362323681], [8.356264905022176, -11.291638257668978, 0.15867823623236807], [8.356264905022176, -11.291638257668978, 0.15867823623236807], [8.356264905022176, -11.291638257668978, 0.15867823623236807], [8.356264905022176, -11.291638257668978, 0.15867823623236807], [8.356264905022176, -11.291638257668978, 0.15867823623236807], [8.356264905022176, -11.291638257668978, 0.15867823623236807], [8.356264905022176, -11.291638257668978, 0.15867823623236807], [8.356264905022176, -11.291638257668978, 0.15867823623236807], [8.356264905022176, -11.291638257668978, 0.15867823623236807], [15.64824298618575, -3.1741601319212602, 0.2586782362323681], [15.64824298618575, -3.1741601319212602, 0.2586782362323681], [15.64824298618575, -3.1741601319212602, 0.2586782362323681], [15.64824298618575, -3.1741601319212602, 0.2586782362323681], [15.64824298618575, -3.1741601319212602, 0.2586782362323681], [15.64824298618575, -3.1741601319212602, 0.2586782362323681], [15.64824298618575, -3.1741601319212602, 0.2586782362323681], [15.64824298618575, -3.1741601319212602, 0.2586782362323681], [15.64824298618575, -3.1741601319212602, 0.2586782362323681], [15.64824298618575, -3.1741601319212602, 0.2586782362323681], [15.64824298618575, -3.1741601319212602, 0.2586782362323681], [15.64824298618575, -3.1741601319212602, 0.2586782362323681], [15.64824298618575, -3.1741601319212602, 0.2586782362323681], [15.64824298618575, -3.1741601319212602, 0.2586782362323681], [15.64824298618575, -3.1741601319212602, 0.2586782362323681], [15.64824298618575, -3.1741601319212602, 0.2586782362323681], [15.64824298618575, -3.1741601319212602, 0.2586782362323681], [15.64824298618575, -3.1741601319212602, 0.2586782362323681], [15.64824298618575, -3.1741601319212602, 0.2586782362323681], [15.64824298618575, -3.1741601319212602, 0.2586782362323681], [15.64824298618575, -3.1741601319212602, 0.2586782362323681], [15.64824298618575, -3.1741601319212602, 0.2586782362323681], [15.64824298618575, -3.1741601319212602, 0.2586782362323681], [15.64824298618575, -3.1741601319212602, 0.2586782362323681], [15.64824298618575, -3.1741601319212602, 0.2586782362323681], [15.64824298618575, -3.1741601319212602, 0.2586782362323681], [15.64824298618575, -3.1741601319212602, 0.2586782362323681], [15.64824298618575, -3.1741601319212602, 0.2586782362323681], [15.64824298618575, -3.1741601319212602, 0.2586782362323681], [15.64824298618575, -3.1741601319212602, 0.2586782362323681], [15.64824298618575, -3.1741601319212602, 0.2586782362323681], [15.64824298618575, -3.1741601319212602, 0.2586782362323681], [15.64824298618575, -3.1741601319212602, 0.2586782362323681], [15.64824298618575, -3.1741601319212602, 0.2586782362323681], [11.689197794170331, -12.571022439943803, 0.35867823623236805], [11.689197794170331, -12.571022439943803, 0.35867823623236805], [17.3765188642284, -4.699004953537763, 0.45867823623236803], [17.3765188642284, -4.699004953537763, 0.45867823623236803], [17.3765188642284, -4.699004953537763, 0.45867823623236803], [17.3765188642284, -4.699004953537763, 0.45867823623236803], [17.3765188642284, -4.699004953537763, 0.45867823623236803], [17.3765188642284, -4.699004953537763, 0.45867823623236803], [17.3765188642284, -4.699004953537763, 0.45867823623236803], [17.3765188642284, -4.699004953537763, 0.45867823623236803], [17.3765188642284, -4.699004953537763, 0.45867823623236803], [17.3765188642284, -4.699004953537763, 0.45867823623236803], [17.3765188642284, -4.699004953537763, 0.45867823623236803], [17.3765188642284, -4.699004953537763, 0.45867823623236803], [17.3765188642284, -4.699004953537763, 0.45867823623236803], [17.3765188642284, -4.699004953537763, 0.45867823623236803], [17.3765188642284, -4.699004953537763, 0.45867823623236803], [17.3765188642284, -4.699004953537763, 0.45867823623236803], [17.3765188642284, -4.699004953537763, 0.45867823623236803], [17.3765188642284, -4.699004953537763, 0.45867823623236803], [17.3765188642284, -4.699004953537763, 0.45867823623236803], [13.843795792229525, -13.68638110779353, 0.558678236232368], [13.843795792229525, -13.68638110779353, 0.558678236232368], [13.843795792229525, -13.68638110779353, 0.558678236232368], [18.72665304916161, -5.312655524497632, 0.45867823623236803], [18.72665304916161, -5.312655524497632, 0.45867823623236803], [18.72665304916161, -5.312655524497632, 0.45867823623236803], [18.72665304916161, -5.312655524497632, 0.45867823623236803], [18.72665304916161, -5.312655524497632, 0.45867823623236803], [18.72665304916161, -5.312655524497632, 0.45867823623236803], [18.72665304916161, -5.312655524497632, 0.45867823623236803], [18.72665304916161, -5.312655524497632, 0.45867823623236803], [18.72665304916161, -5.312655524497632, 0.45867823623236803], [18.72665304916161, -5.312655524497632, 0.45867823623236803], [18.72665304916161, -5.312655524497632, 0.45867823623236803], [18.72665304916161, -5.312655524497632, 0.45867823623236803], [18.72665304916161, -5.312655524497632, 0.45867823623236803], [18.72665304916161, -5.312655524497632, 0.45867823623236803], [18.72665304916161, -5.312655524497632, 0.45867823623236803], [17.383242948663497, -9.5444575842237, 0.558678236232368], [17.383242948663497, -9.5444575842237, 0.558678236232368], [17.383242948663497, -9.5444575842237, 0.558678236232368], [17.383242948663497, -9.5444575842237, 0.558678236232368], [17.383242948663497, -9.5444575842237, 0.558678236232368], [17.383242948663497, -9.5444575842237, 0.558678236232368], [17.383242948663497, -9.5444575842237, 0.558678236232368], [17.383242948663497, -9.5444575842237, 0.558678236232368], [17.383242948663497, -9.5444575842237, 0.558678236232368], [17.383242948663497, -9.5444575842237, 0.558678236232368], [17.383242948663497, -9.5444575842237, 0.558678236232368], [17.383242948663497, -9.5444575842237, 0.558678236232368], [17.383242948663497, -9.5444575842237, 0.558678236232368], [17.383242948663497, -9.5444575842237, 0.558678236232368], [17.383242948663497, -9.5444575842237, 0.558678236232368], [17.383242948663497, -9.5444575842237, 0.558678236232368], [17.383242948663497, -9.5444575842237, 0.558678236232368], [17.383242948663497, -9.5444575842237, 0.558678236232368], [17.383242948663497, -9.5444575842237, 0.558678236232368], [17.383242948663497, -9.5444575842237, 0.558678236232368], [17.383242948663497, -9.5444575842237, 0.558678236232368], [17.383242948663497, -9.5444575842237, 0.558678236232368], [17.383242948663497, -9.5444575842237, 0.558678236232368], [17.383242948663497, -9.5444575842237, 0.558678236232368], [17.383242948663497, -9.5444575842237, 0.558678236232368], [17.383242948663497, -9.5444575842237, 0.558678236232368], [17.383242948663497, -9.5444575842237, 0.558678236232368], [17.383242948663497, -9.5444575842237, 0.558678236232368], [17.383242948663497, -9.5444575842237, 0.558678236232368], [17.383242948663497, -9.5444575842237, 0.558678236232368], [17.383242948663497, -9.5444575842237, 0.558678236232368], [17.383242948663497, -9.5444575842237, 0.558678236232368], [17.383242948663497, -9.5444575842237, 0.558678236232368], [17.383242948663497, -9.5444575842237, 0.558678236232368], [17.383242948663497, -9.5444575842237, 0.558678236232368], [17.383242948663497, -9.5444575842237, 0.558678236232368], [17.383242948663497, -9.5444575842237, 0.558678236232368], [17.383242948663497, -9.5444575842237, 0.558678236232368], [17.383242948663497, -9.5444575842237, 0.558678236232368], [17.383242948663497, -9.5444575842237, 0.558678236232368], [17.383242948663497, -9.5444575842237, 0.558678236232368], [21.18916630184249, -2.3015777665151305, 0.658678236232368], [21.18916630184249, -2.3015777665151305, 0.658678236232368], [21.18916630184249, -2.3015777665151305, 0.658678236232368], [21.18916630184249, -2.3015777665151305, 0.658678236232368], [21.18916630184249, -2.3015777665151305, 0.658678236232368], [21.18916630184249, -2.3015777665151305, 0.658678236232368], [21.18916630184249, -2.3015777665151305, 0.658678236232368], [21.18916630184249, -2.3015777665151305, 0.658678236232368], [21.18916630184249, -2.3015777665151305, 0.658678236232368], [21.18916630184249, -2.3015777665151305, 0.658678236232368], [21.18916630184249, -2.3015777665151305, 0.658678236232368], [21.18916630184249, -2.3015777665151305, 0.658678236232368], [21.18916630184249, -2.3015777665151305, 0.658678236232368], [21.18916630184249, -2.3015777665151305, 0.658678236232368], [19.403612438068755, -10.587075224223263, 0.758678236232368], [19.403612438068755, -10.587075224223263, 0.758678236232368], [19.403612438068755, -10.587075224223263, 0.758678236232368], [19.403612438068755, -10.587075224223263, 0.758678236232368], [19.403612438068755, -10.587075224223263, 0.758678236232368], [19.403612438068755, -10.587075224223263, 0.758678236232368], [19.403612438068755, -10.587075224223263, 0.758678236232368], [19.403612438068755, -10.587075224223263, 0.758678236232368], [19.403612438068755, -10.587075224223263, 0.758678236232368], [19.403612438068755, -10.587075224223263, 0.758678236232368], [19.403612438068755, -10.587075224223263, 0.758678236232368], [19.403612438068755, -10.587075224223263, 0.758678236232368], [19.403612438068755, -10.587075224223263, 0.758678236232368], [19.403612438068755, -10.587075224223263, 0.758678236232368], [19.403612438068755, -10.587075224223263, 0.758678236232368], [19.403612438068755, -10.587075224223263, 0.758678236232368], [19.403612438068755, -10.587075224223263, 0.758678236232368], [19.403612438068755, -10.587075224223263, 0.758678236232368], [19.403612438068755, -10.587075224223263, 0.758678236232368], [19.403612438068755, -10.587075224223263, 0.758678236232368], [19.403612438068755, -10.587075224223263, 0.758678236232368], [19.403612438068755, -10.587075224223263, 0.758678236232368], [19.403612438068755, -10.587075224223263, 0.758678236232368], [19.403612438068755, -10.587075224223263, 0.758678236232368], [19.403612438068755, -10.587075224223263, 0.758678236232368], [19.403612438068755, -10.587075224223263, 0.758678236232368], [19.403612438068755, -10.587075224223263, 0.758678236232368], [19.403612438068755, -10.587075224223263, 0.758678236232368], [19.403612438068755, -10.587075224223263, 0.758678236232368], [19.403612438068755, -10.587075224223263, 0.758678236232368], [19.403612438068755, -10.587075224223263, 0.758678236232368], [19.403612438068755, -10.587075224223263, 0.758678236232368], [19.403612438068755, -10.587075224223263, 0.758678236232368], [19.403612438068755, -10.587075224223263, 0.758678236232368], [19.403612438068755, -10.587075224223263, 0.758678236232368], [19.403612438068755, -10.587075224223263, 0.758678236232368], [19.403612438068755, -10.587075224223263, 0.758678236232368], [19.403612438068755, -10.587075224223263, 0.758678236232368], [19.403612438068755, -10.587075224223263, 0.758678236232368], [19.403612438068755, -10.587075224223263, 0.758678236232368], [19.403612438068755, -10.587075224223263, 0.758678236232368], [19.403612438068755, -10.587075224223263, 0.758678236232368], [19.403612438068755, -10.587075224223263, 0.758678236232368], [19.403612438068755, -10.587075224223263, 0.758678236232368], [19.403612438068755, -10.587075224223263, 0.758678236232368], [19.403612438068755, -10.587075224223263, 0.758678236232368], [19.403612438068755, -10.587075224223263, 0.758678236232368], [19.403612438068755, -10.587075224223263, 0.758678236232368], [19.403612438068755, -10.587075224223263, 0.758678236232368], [19.403612438068755, -10.587075224223263, 0.758678236232368], [19.403612438068755, -10.587075224223263, 0.758678236232368], [24.012595583108375, -1.2591388104440124, 0.658678236232368], [24.012595583108375, -1.2591388104440124, 0.658678236232368], [24.012595583108375, -1.2591388104440124, 0.658678236232368], [24.012595583108375, -1.2591388104440124, 0.658678236232368], [24.012595583108375, -1.2591388104440124, 0.658678236232368], [24.012595583108375, -1.2591388104440124, 0.658678236232368], [24.012595583108375, -1.2591388104440124, 0.658678236232368], [24.012595583108375, -1.2591388104440124, 0.658678236232368], [24.012595583108375, -1.2591388104440124, 0.658678236232368], [24.012595583108375, -1.2591388104440124, 0.658678236232368], [24.012595583108375, -1.2591388104440124, 0.658678236232368], [24.012595583108375, -1.2591388104440124, 0.658678236232368], [24.012595583108375, -1.2591388104440124, 0.658678236232368], [22.653184411635696, -7.320264871605683, 0.558678236232368], [22.653184411635696, -7.320264871605683, 0.558678236232368], [22.653184411635696, -7.320264871605683, 0.558678236232368], [22.653184411635696, -7.320264871605683, 0.558678236232368], [22.653184411635696, -7.320264871605683, 0.558678236232368], [22.653184411635696, -7.320264871605683, 0.558678236232368], [22.653184411635696, -7.320264871605683, 0.558678236232368], [22.653184411635696, -7.320264871605683, 0.558678236232368], [22.653184411635696, -7.320264871605683, 0.558678236232368], [22.653184411635696, -7.320264871605683, 0.558678236232368], [22.653184411635696, -7.320264871605683, 0.558678236232368], [22.653184411635696, -7.320264871605683, 0.558678236232368], [22.653184411635696, -7.320264871605683, 0.558678236232368], [22.653184411635696, -7.320264871605683, 0.558678236232368], [22.653184411635696, -7.320264871605683, 0.558678236232368], [22.653184411635696, -7.320264871605683, 0.558678236232368], [22.653184411635696, -7.320264871605683, 0.558678236232368], [22.653184411635696, -7.320264871605683, 0.558678236232368], [22.653184411635696, -7.320264871605683, 0.558678236232368], [22.653184411635696, -7.320264871605683, 0.558678236232368], [22.653184411635696, -7.320264871605683, 0.558678236232368], [22.653184411635696, -7.320264871605683, 0.558678236232368], [22.653184411635696, -7.320264871605683, 0.558678236232368], [22.653184411635696, -7.320264871605683, 0.558678236232368], [22.653184411635696, -7.320264871605683, 0.558678236232368], [22.653184411635696, -7.320264871605683, 0.558678236232368], [22.653184411635696, -7.320264871605683, 0.558678236232368], [22.653184411635696, -7.320264871605683, 0.558678236232368], [22.653184411635696, -7.320264871605683, 0.558678236232368], [22.653184411635696, -7.320264871605683, 0.558678236232368], [22.653184411635696, -7.320264871605683, 0.558678236232368], [22.653184411635696, -7.320264871605683, 0.558678236232368], [22.653184411635696, -7.320264871605683, 0.558678236232368], [22.653184411635696, -7.320264871605683, 0.558678236232368], [22.653184411635696, -7.320264871605683, 0.558678236232368], [22.653184411635696, -7.320264871605683, 0.558678236232368], [22.653184411635696, -7.320264871605683, 0.558678236232368], [22.653184411635696, -7.320264871605683, 0.558678236232368], [22.653184411635696, -7.320264871605683, 0.558678236232368], [22.653184411635696, -7.320264871605683, 0.558678236232368], [22.653184411635696, -7.320264871605683, 0.558678236232368], [22.653184411635696, -7.320264871605683, 0.558678236232368], [22.653184411635696, -7.320264871605683, 0.558678236232368], [22.653184411635696, -7.320264871605683, 0.558678236232368], [22.653184411635696, -7.320264871605683, 0.558678236232368], [22.653184411635696, -7.320264871605683, 0.558678236232368], [22.653184411635696, -7.320264871605683, 0.558678236232368], [22.653184411635696, -7.320264871605683, 0.558678236232368], [22.653184411635696, -7.320264871605683, 0.558678236232368], [22.653184411635696, -7.320264871605683, 0.558678236232368], [22.653184411635696, -7.320264871605683, 0.558678236232368], [22.653184411635696, -7.320264871605683, 0.558678236232368], [22.653184411635696, -7.320264871605683, 0.558678236232368], [22.653184411635696, -7.320264871605683, 0.558678236232368], [22.653184411635696, -7.320264871605683, 0.558678236232368], [22.653184411635696, -7.320264871605683, 0.558678236232368], [22.653184411635696, -7.320264871605683, 0.558678236232368], [22.653184411635696, -7.320264871605683, 0.558678236232368], [22.653184411635696, -7.320264871605683, 0.558678236232368], [22.653184411635696, -7.320264871605683, 0.558678236232368], [22.653184411635696, -7.320264871605683, 0.558678236232368], [22.653184411635696, -7.320264871605683, 0.558678236232368], [22.653184411635696, -7.320264871605683, 0.558678236232368], [22.653184411635696, -7.320264871605683, 0.558678236232368], [22.653184411635696, -7.320264871605683, 0.558678236232368], [22.653184411635696, -7.320264871605683, 0.558678236232368], [22.653184411635696, -7.320264871605683, 0.558678236232368], [22.653184411635696, -7.320264871605683, 0.558678236232368], [22.653184411635696, -7.320264871605683, 0.558678236232368], [22.653184411635696, -7.320264871605683, 0.558678236232368], [22.653184411635696, -7.320264871605683, 0.558678236232368], [22.653184411635696, -7.320264871605683, 0.558678236232368], [22.653184411635696, -7.320264871605683, 0.558678236232368], [22.653184411635696, -7.320264871605683, 0.558678236232368], [22.653184411635696, -7.320264871605683, 0.558678236232368], [22.653184411635696, -7.320264871605683, 0.558678236232368], [22.653184411635696, -7.320264871605683, 0.558678236232368], [22.653184411635696, -7.320264871605683, 0.558678236232368], [22.653184411635696, -7.320264871605683, 0.558678236232368], [22.653184411635696, -7.320264871605683, 0.558678236232368], [22.653184411635696, -7.320264871605683, 0.558678236232368], [22.653184411635696, -7.320264871605683, 0.558678236232368], [22.653184411635696, -7.320264871605683, 0.558678236232368], [22.653184411635696, -7.320264871605683, 0.558678236232368], [22.653184411635696, -7.320264871605683, 0.558678236232368], [22.653184411635696, -7.320264871605683, 0.558678236232368], [22.653184411635696, -7.320264871605683, 0.558678236232368], [22.653184411635696, -7.320264871605683, 0.558678236232368], [22.653184411635696, -7.320264871605683, 0.558678236232368], [22.653184411635696, -7.320264871605683, 0.558678236232368], [22.653184411635696, -7.320264871605683, 0.558678236232368], [22.653184411635696, -7.320264871605683, 0.558678236232368], [22.653184411635696, -7.320264871605683, 0.558678236232368], [22.653184411635696, -7.320264871605683, 0.558678236232368], [22.653184411635696, -7.320264871605683, 0.558678236232368], [22.653184411635696, -7.320264871605683, 0.558678236232368], [22.653184411635696, -7.320264871605683, 0.558678236232368], [22.653184411635696, -7.320264871605683, 0.558678236232368], [22.653184411635696, -7.320264871605683, 0.558678236232368]]