[[0.960391969878797, 0.19746574679261886, -0.9032122032205834], [0.960391969878797, 0.19746574679261886, -0.9032122032205834], [-1.551061536708554, -6.637975925966933, -1.0032122032205835], [7.0890149300126275, -5.625927974502026, -1.1032122032205836], [11.107560566215945, -0.16315778501342493, -1.0032122032205835], [11.107560566215945, -0.16315778501342493, -1.0032122032205835], [11.107560566215945, -0.16315778501342493, -1.0032122032205835], [11.107560566215945, -0.16315778501342493, -1.0032122032205835], [11.107560566215945, -0.16315778501342493, -1.0032122032205835], [11.107560566215945, -0.16315778501342493, -1.0032122032205835], [11.107560566215945, -0.16315778501342493, -1.0032122032205835], [11.107560566215945, -0.16315778501342493, -1.0032122032205835], [11.107560566215945, -0.16315778501342493, -1.0032122032205835], [11.107560566215945, -0.16315778501342493, -1.0032122032205835], [11.107560566215945, -0.16315778501342493, -1.0032122032205835], [11.107560566215945, -0.16315778501342493, -1.0032122032205835], [11.107560566215945, -0.16315778501342493, -1.0032122032205835], [7.462822478464484, -9.572530501779026, -0.9032122032205835], [7.462822478464484, -9.572530501779026, -0.9032122032205835], [7.462822478464484, -9.572530501779026, -0.9032122032205835], [7.462822478464484, -9.572530501779026, -0.9032122032205835], [7.462822478464484, -9.572530501779026, -0.9032122032205835], [7.462822478464484, -9.572530501779026, -0.9032122032205835], [7.462822478464484, -9.572530501779026, -0.9032122032205835], [7.462822478464484, -9.572530501779026, -0.9032122032205835], [7.462822478464484, -9.572530501779026, -0.9032122032205835], [7.462822478464484, -9.572530501779026, -0.9032122032205835], [7.462822478464484, -9.572530501779026, -0.9032122032205835], [7.462822478464484, -9.572530501779026, -0.9032122032205835], [16.68919994671437, 0.35947147836284365, -0.8032122032205835], [16.68919994671437, 0.35947147836284365, -0.8032122032205835], [16.68919994671437, 0.35947147836284365, -0.8032122032205835], [16.68919994671437, 0.35947147836284365, -0.8032122032205835], [16.68919994671437, 0.35947147836284365, -0.8032122032205835], [15.247420013549306, -7.270123634888575, -0.7032122032205835], [15.247420013549306, -7.270123634888575, -0.7032122032205835], [15.247420013549306, -7.270123634888575, -0.7032122032205835], [15.247420013549306, -7.270123634888575, -0.7032122032205835], [15.247420013549306, -7.270123634888575, -0.7032122032205835], [15.247420013549306, -7.270123634888575, -0.7032122032205835], [15.247420013549306, -7.270123634888575, -0.7032122032205835], [15.247420013549306, -7.270123634888575, -0.7032122032205835], [15.247420013549306, -7.270123634888575, -0.7032122032205835], [15.247420013549306, -7.270123634888575, -0.7032122032205835], [15.247420013549306, -7.270123634888575, -0.7032122032205835], [15.247420013549306, -7.270123634888575, -0.7032122032205835], [15.247420013549306, -7.270123634888575, -0.7032122032205835], [15.247420013549306, -7.270123634888575, -0.7032122032205835], [15.247420013549306, -7.270123634888575, -0.7032122032205835], [15.247420013549306, -7.270123634888575, -0.7032122032205835], [15.247420013549306, -7.270123634888575, -0.7032122032205835], [15.247420013549306, -7.270123634888575, -0.7032122032205835], [15.247420013549306, -7.270123634888575, -0.7032122032205835], [15.247420013549306, -7.270123634888575, -0.7032122032205835], [15.247420013549306, -7.270123634888575, -0.7032122032205835], [15.247420013549306, -7.270123634888575, -0.7032122032205835], [15.247420013549306, -7.270123634888575, -0.7032122032205835], [15.247420013549306, -7.270123634888575, -0.7032122032205835], [15.247420013549306, -7.270123634888575, -0.7032122032205835], [15.247420013549306, -7.270123634888575, -0.7032122032205835], [15.247420013549306, -7.270123634888575, -0.7032122032205835], [15.247420013549306, -7.270123634888575, -0.7032122032205835], [15.247420013549306, -7.270123634888575, -0.7032122032205835], [15.247420013549306, -7.270123634888575, -0.7032122032205835], [15.247420013549306, -7.270123634888575, -0.7032122032205835], [15.247420013549306, -7.270123634888575, -0.7032122032205835], [15.247420013549306, -7.270123634888575, -0.7032122032205835], [15.247420013549306, -7.270123634888575, -0.7032122032205835], [15.247420013549306, -7.270123634888575, -0.7032122032205835], [15.247420013549306, -7.270123634888575, -0.7032122032205835], [15.247420013549306, -7.270123634888575, -0.7032122032205835], [15.247420013549306, -7.270123634888575, -0.7032122032205835], [15.247420013549306, -7.270123634888575, -0.7032122032205835], [15.247420013549306, -7.270123634888575, -0.7032122032205835], [15.247420013549306, -7.270123634888575, -0.7032122032205835], [15.247420013549306, -7.270123634888575, -0.7032122032205835], [15.247420013549306, -7.270123634888575, -0.7032122032205835], [15.247420013549306, -7.270123634888575, -0.7032122032205835], [15.247420013549306, -7.270123634888575, -0.7032122032205835], [15.247420013549306, -7.270123634888575, -0.7032122032205835], [15.247420013549306, -7.270123634888575, -0.7032122032205835], [15.247420013549306, -7.270123634888575, -0.7032122032205835], [15.247420013549306, -7.270123634888575, -0.7032122032205835], [15.247420013549306, -7.270123634888575, -0.7032122032205835], [15.247420013549306, -7.270123634888575, -0.7032122032205835], [15.247420013549306, -7.270123634888575, -0.7032122032205835], [15.247420013549306, -7.270123634888575, -0.7032122032205835], [15.247420013549306, -7.270123634888575, -0.7032122032205835], [15.247420013549306, -7.270123634888575, -0.7032122032205835], [15.247420013549306, -7.270123634888575, -0.7032122032205835], [15.247420013549306, -7.270123634888575, -0.7032122032205835], [15.247420013549306, -7.270123634888575, -0.7032122032205835], [15.247420013549306, -7.270123634888575, -0.7032122032205835], [15.247420013549306, -7.270123634888575, -0.7032122032205835], [15.247420013549306, -7.270123634888575, -0.7032122032205835], [15.247420013549306, -7.270123634888575, -0.7032122032205835], [15.247420013549306, -7.270123634888575, -0.7032122032205835], [15.247420013549306, -7.270123634888575, -0.7032122032205835], [15.247420013549306, -7.270123634888575, -0.7032122032205835], [15.247420013549306, -7.270123634888575, -0.7032122032205835], [15.247420013549306, -7.270123634888575, -0.7032122032205835], [15.247420013549306, -7.270123634888575, -0.7032122032205835], [15.247420013549306, -7.270123634888575, -0.7032122032205835], [15.247420013549306, -7.270123634888575, -0.7032122032205835], [15.247420013549306, -7.270123634888575, -0.7032122032205835], [15.247420013549306, -7.270123634888575, -0.7032122032205835], [15.247420013549306, -7.270123634888575, -0.7032122032205835], [15.247420013549306, -7.270123634888575, -0.7032122032205835], [15.247420013549306, -7.270123634888575, -0.7032122032205835], [15.247420013549306, -7.270123634888575, -0.7032122032205835], [15.247420013549306, -7.270123634888575, -0.7032122032205835], [15.247420013549306, -7.270123634888575, -0.7032122032205835], [15.247420013549306, -7.270123634888575, -0.7032122032205835], [15.247420013549306, -7.270123634888575, -0.7032122032205835], [15.247420013549306, -7.270123634888575, -0.7032122032205835], [15.247420013549306, -7.270123634888575, -0.7032122032205835], [15.247420013549306, -7.270123634888575, -0.7032122032205835], [15.247420013549306, -7.270123634888575, -0.7032122032205835], [15.247420013549306, -7.270123634888575, -0.7032122032205835], [15.247420013549306, -7.270123634888575, -0.7032122032205835], [15.247420013549306, -7.270123634888575, -0.7032122032205835], [15.247420013549306, -7.270123634888575, -0.7032122032205835], [15.247420013549306, -7.270123634888575, -0.7032122032205835], [15.247420013549306, -7.270123634888575, -0.7032122032205835], [15.247420013549306, -7.270123634888575, -0.7032122032205835], [15.247420013549306, -7.270123634888575, -0.7032122032205835], [15.247420013549306, -7.270123634888575, -0.7032122032205835], [15.247420013549306, -7.270123634888575, -0.7032122032205835], [15.247420013549306, -7.270123634888575, -0.7032122032205835], [15.247420013549306, -7.270123634888575, -0.7032122032205835], [15.247420013549306, -7.270123634888575, -0.7032122032205835], [18.14340847859536, -0.5905222644429937, -0.6032122032205836], [18.14340847859536, -0.5905222644429937, -0.6032122032205836], [17.495993670407255, -3.2014021376944397, -0.5032122032205836], [17.495993670407255, -3.2014021376944397, -0.5032122032205836], [17.495993670407255, -3.2014021376944397, -0.5032122032205836], [17.495993670407255, -3.2014021376944397, -0.5032122032205836], [17.495993670407255, -3.2014021376944397, -0.5032122032205836], [17.495993670407255, -3.2014021376944397, -0.5032122032205836], [17.495993670407255, -3.2014021376944397, -0.5032122032205836], [17.495993670407255, -3.2014021376944397, -0.5032122032205836], [17.495993670407255, -3.2014021376944397, -0.5032122032205836], [17.495993670407255, -3.2014021376944397, -0.5032122032205836], [17.495993670407255, -3.2014021376944397, -0.5032122032205836], [17.495993670407255, -3.2014021376944397, -0.5032122032205836], [17.495993670407255, -3.2014021376944397, -0.5032122032205836], [17.495993670407255, -3.2014021376944397, -0.5032122032205836], [17.495993670407255, -3.2014021376944397, -0.5032122032205836], [17.495993670407255, -3.2014021376944397, -0.5032122032205836], [17.495993670407255, -3.2014021376944397, -0.5032122032205836], [17.495993670407255, -3.2014021376944397, -0.5032122032205836], [17.495993670407255, -3.2014021376944397, -0.5032122032205836], [17.495993670407255, -3.2014021376944397, -0.5032122032205836], [17.495993670407255, -3.2014021376944397, -0.5032122032205836], [17.495993670407255, -3.2014021376944397, -0.5032122032205836], [17.495993670407255, -3.2014021376944397, -0.5032122032205836], [15.721085459563238, -9.561009795231609, -0.6032122032205836], [15.721085459563238, -9.561009795231609, -0.6032122032205836], [15.721085459563238, -9.561009795231609, -0.6032122032205836], [15.721085459563238, -9.561009795231609, -0.6032122032205836], [15.721085459563238, -9.561009795231609, -0.6032122032205836], [15.721085459563238, -9.561009795231609, -0.6032122032205836], [15.721085459563238, -9.561009795231609, -0.6032122032205836], [15.721085459563238, -9.561009795231609, -0.6032122032205836], [15.721085459563238, -9.561009795231609, -0.6032122032205836], [15.721085459563238, -9.561009795231609, -0.6032122032205836], [15.721085459563238, -9.561009795231609, -0.6032122032205836], [15.721085459563238, -9.561009795231609, -0.6032122032205836], [15.721085459563238, -9.561009795231609, -0.6032122032205836], [15.721085459563238, -9.561009795231609, -0.6032122032205836], [15.721085459563238, -9.561009795231609, -0.6032122032205836], [15.721085459563238, -9.561009795231609, -0.6032122032205836], [15.721085459563238, -9.561009795231609, -0.6032122032205836], [15.721085459563238, -9.561009795231609, -0.6032122032205836], [15.721085459563238, -9.561009795231609, -0.6032122032205836], [15.721085459563238, -9.561009795231609, -0.6032122032205836], [15.721085459563238, -9.561009795231609, -0.6032122032205836], [15.721085459563238, -9.561009795231609, -0.6032122032205836], [15.721085459563238, -9.561009795231609, -0.6032122032205836], [15.721085459563238, -9.561009795231609, -0.6032122032205836], [15.721085459563238, -9.561009795231609, -0.6032122032205836], [15.721085459563238, -9.561009795231609, -0.6032122032205836], [15.721085459563238, -9.561009795231609, -0.6032122032205836], [15.729996869583653, -9.53548163788799, -0.5032122032205836], [15.729996869583653, -9.53548163788799, -0.5032122032205836], [15.729996869583653, -9.53548163788799, -0.5032122032205836], [15.729996869583653, -9.53548163788799, -0.5032122032205836], [15.729996869583653, -9.53548163788799, -0.5032122032205836], [15.729996869583653, -9.53548163788799, -0.5032122032205836], [15.729996869583653, -9.53548163788799, -0.5032122032205836], [15.729996869583653, -9.53548163788799, -0.5032122032205836], [15.729996869583653, -9.53548163788799, -0.5032122032205836], [15.729996869583653, -9.53548163788799, -0.5032122032205836], [15.729996869583653, -9.53548163788799, -0.5032122032205836], [15.729996869583653, -9.53548163788799, -0.5032122032205836], [15.729996869583653, -9.53548163788799, -0.5032122032205836], [15.729996869583653, -9.53548163788799, -0.5032122032205836], [15.729996869583653, -9.53548163788799, -0.5032122032205836], [15.729996869583653, -9.53548163788799, -0.5032122032205836], [15.729996869583653, -9.53548163788799, -0.5032122032205836], [15.729996869583653, -9.53548163788799, -0.5032122032205836], [15.729996869583653, -9.53548163788799, -0.5032122032205836], [15.729996869583653, -9.53548163788799, -0.5032122032205836], [15.729996869583653, -9.53548163788799, -0.5032122032205836], [15.729996869583653, -9.53548163788799, -0.5032122032205836], [15.729996869583653, -9.53548163788799, -0.5032122032205836], [15.729996869583653, -9.53548163788799, -0.5032122032205836], [15.729996869583653, -9.53548163788799, -0.5032122032205836], [15.729996869583653, -9.53548163788799, -0.5032122032205836], [15.729996869583653, -9.53548163788799, -0.5032122032205836], [15.729996869583653, -9.53548163788799, -0.5032122032205836], [15.729996869583653, -9.53548163788799, -0.5032122032205836], [15.729996869583653, -9.53548163788799, -0.5032122032205836], [15.729996869583653, -9.53548163788799, -0.5032122032205836], [15.729996869583653, -9.53548163788799, -0.5032122032205836], [15.729996869583653, -9.53548163788799, -0.5032122032205836], [15.729996869583653, -9.53548163788799, -0.5032122032205836], [15.729996869583653, -9.53548163788799, -0.5032122032205836], [15.729996869583653, -9.53548163788799, -0.5032122032205836], [15.729996869583653, -9.53548163788799, -0.5032122032205836], [15.729996869583653, -9.53548163788799, -0.5032122032205836], [15.729996869583653, -9.53548163788799, -0.5032122032205836], [15.729996869583653, -9.53548163788799, -0.5032122032205836], [15.729996869583653, -9.53548163788799, -0.5032122032205836], [15.729996869583653, -9.53548163788799, -0.5032122032205836], [15.729996869583653, -9.53548163788799, -0.5032122032205836], [15.729996869583653, -9.53548163788799, -0.5032122032205836], [15.729996869583653, -9.53548163788799, -0.5032122032205836], [15.729996869583653, -9.53548163788799, -0.5032122032205836], [15.729996869583653, -9.53548163788799, -0.5032122032205836], [19.530320589306864, -2.071956869567181, -0.4032122032205836], [19.530320589306864, -2.071956869567181, -0.4032122032205836], [19.530320589306864, -2.071956869567181, -0.4032122032205836], [19.530320589306864, -2.071956869567181, -0.4032122032205836], [19.530320589306864, -2.071956869567181, -0.4032122032205836], [17.647728636073843, -9.32356348959227, -0.3032122032205836], [17.647728636073843, -9.32356348959227, -0.3032122032205836], [17.647728636073843, -9.32356348959227, -0.3032122032205836], [17.647728636073843, -9.32356348959227, -0.3032122032205836], [17.647728636073843, -9.32356348959227, -0.3032122032205836], [17.647728636073843, -9.32356348959227, -0.3032122032205836], [17.647728636073843, -9.32356348959227, -0.3032122032205836], [17.647728636073843, -9.32356348959227, -0.3032122032205836], [17.647728636073843, -9.32356348959227, -0.3032122032205836], [17.647728636073843, -9.32356348959227, -0.3032122032205836], [17.647728636073843, -9.32356348959227, -0.3032122032205836], [17.647728636073843, -9.32356348959227, -0.3032122032205836], [17.647728636073843, -9.32356348959227, -0.3032122032205836], [17.647728636073843, -9.32356348959227, -0.3032122032205836], [17.647728636073843, -9.32356348959227, -0.3032122032205836], [17.647728636073843, -9.32356348959227, -0.3032122032205836], [17.647728636073843, -9.32356348959227, -0.3032122032205836], [17.647728636073843, -9.32356348959227, -0.3032122032205836], [17.647728636073843, -9.32356348959227, -0.3032122032205836], [17.647728636073843, -9.32356348959227, -0.3032122032205836], [17.647728636073843, -9.32356348959227, -0.3032122032205836], [17.647728636073843, -9.32356348959227, -0.3032122032205836], [17.647728636073843, -9.32356348959227, -0.3032122032205836], [17.647728636073843, -9.32356348959227, -0.3032122032205836], [17.647728636073843, -9.32356348959227, -0.3032122032205836], [17.647728636073843, -9.32356348959227, -0.3032122032205836], [17.647728636073843, -9.32356348959227, -0.3032122032205836], [17.647728636073843, -9.32356348959227, -0.3032122032205836], [17.647728636073843, -9.32356348959227, -0.3032122032205836], [17.647728636073843, -9.32356348959227, -0.3032122032205836], [17.647728636073843, -9.32356348959227, -0.3032122032205836], [17.647728636073843, -9.32356348959227, -0.3032122032205836], [17.647728636073843, -9.32356348959227, -0.3032122032205836], [17.647728636073843, -9.32356348959227, -0.3032122032205836], [17.647728636073843, -9.32356348959227, -0.3032122032205836], [17.647728636073843, -9.32356348959227, -0.3032122032205836], [17.647728636073843, -9.32356348959227, -0.3032122032205836], [17.647728636073843, -9.32356348959227, -0.3032122032205836], [17.647728636073843, -9.32356348959227, -0.3032122032205836], [17.647728636073843, -9.32356348959227, -0.3032122032205836], [17.647728636073843, -9.32356348959227, -0.3032122032205836], [17.647728636073843, -9.32356348959227, -0.3032122032205836], [17.647728636073843, -9.32356348959227, -0.3032122032205836], [17.647728636073843, -9.32356348959227, -0.3032122032205836], [17.647728636073843, -9.32356348959227, -0.3032122032205836], [17.647728636073843, -9.32356348959227, -0.3032122032205836], [17.647728636073843, -9.32356348959227, -0.3032122032205836], [17.647728636073843, -9.32356348959227, -0.3032122032205836], [17.647728636073843, -9.32356348959227, -0.3032122032205836], [17.647728636073843, -9.32356348959227, -0.3032122032205836], [17.647728636073843, -9.32356348959227, -0.3032122032205836], [17.647728636073843, -9.32356348959227, -0.3032122032205836], [17.647728636073843, -9.32356348959227, -0.3032122032205836], [17.647728636073843, -9.32356348959227, -0.3032122032205836], [17.647728636073843, -9.32356348959227, -0.3032122032205836], [17.647728636073843, -9.32356348959227, -0.3032122032205836], [17.647728636073843, -9.32356348959227, -0.3032122032205836], [17.647728636073843, -9.32356348959227, -0.3032122032205836], [17.647728636073843, -9.32356348959227, -0.3032122032205836], [17.647728636073843, -9.32356348959227, -0.3032122032205836], [17.647728636073843, -9.32356348959227, -0.3032122032205836], [19.445717773099208, -5.394362026069515, -0.4032122032205836], [19.445717773099208, -5.394362026069515, -0.4032122032205836], [19.445717773099208, -5.394362026069515, -0.4032122032205836], [19.445717773099208, -5.394362026069515, -0.4032122032205836], [19.445717773099208, -5.394362026069515, -0.4032122032205836], [19.445717773099208, -5.394362026069515, -0.4032122032205836], [19.445717773099208, -5.394362026069515, -0.4032122032205836], [19.445717773099208, -5.394362026069515, -0.4032122032205836], [19.445717773099208, -5.394362026069515, -0.4032122032205836], [19.445717773099208, -5.394362026069515, -0.4032122032205836], [19.445717773099208, -5.394362026069515, -0.4032122032205836], [19.445717773099208, -5.394362026069515, -0.4032122032205836], [19.445717773099208, -5.394362026069515, -0.4032122032205836], [19.445717773099208, -5.394362026069515, -0.4032122032205836], [19.445717773099208, -5.394362026069515, -0.4032122032205836], [19.445717773099208, -5.394362026069515, -0.4032122032205836], [19.445717773099208, -5.394362026069515, -0.4032122032205836], [19.445717773099208, -5.394362026069515, -0.4032122032205836], [19.445717773099208, -5.394362026069515, -0.4032122032205836], [19.445717773099208, -5.394362026069515, -0.4032122032205836], [19.445717773099208, -5.394362026069515, -0.4032122032205836], [19.445717773099208, -5.394362026069515, -0.4032122032205836], [19.445717773099208, -5.394362026069515, -0.4032122032205836], [19.445717773099208, -5.394362026069515, -0.4032122032205836], [19.445717773099208, -5.394362026069515, -0.4032122032205836], [19.445717773099208, -5.394362026069515, -0.4032122032205836], [19.445717773099208, -5.394362026069515, -0.4032122032205836], [19.445717773099208, -5.394362026069515, -0.4032122032205836], [19.445717773099208, -5.394362026069515, -0.4032122032205836], [19.445717773099208, -5.394362026069515, -0.4032122032205836], [19.445717773099208, -5.394362026069515, -0.4032122032205836], [19.445717773099208, -5.394362026069515, -0.4032122032205836], [19.445717773099208, -5.394362026069515, -0.4032122032205836], [19.445717773099208, -5.394362026069515, -0.4032122032205836], [19.445717773099208, -5.394362026069515, -0.4032122032205836], [19.445717773099208, -5.394362026069515, -0.4032122032205836], [19.445717773099208, -5.394362026069515, -0.4032122032205836], [19.445717773099208, -5.394362026069515, -0.4032122032205836], [19.445717773099208, -5.394362026069515, -0.4032122032205836], [19.445717773099208, -5.394362026069515, -0.4032122032205836], [19.445717773099208, -5.394362026069515, -0.4032122032205836], [19.445717773099208, -5.394362026069515, -0.4032122032205836], [19.445717773099208, -5.394362026069515, -0.4032122032205836], [19.445717773099208, -5.394362026069515, -0.4032122032205836], [19.445717773099208, -5.394362026069515, -0.4032122032205836], [19.445717773099208, -5.394362026069515, -0.4032122032205836], [19.445717773099208, -5.394362026069515, -0.4032122032205836], [19.445717773099208, -5.394362026069515, -0.4032122032205836], [19.445717773099208, -5.394362026069515, -0.4032122032205836], [19.445717773099208, -5.394362026069515, -0.4032122032205836], [19.445717773099208, -5.394362026069515, -0.4032122032205836], [19.445717773099208, -5.394362026069515, -0.4032122032205836], [19.445717773099208, -5.394362026069515, -0.4032122032205836], [19.445717773099208, -5.394362026069515, -0.4032122032205836], [19.445717773099208, -5.394362026069515, -0.4032122032205836], [19.445717773099208, -5.394362026069515, -0.4032122032205836], [19.445717773099208, -5.394362026069515, -0.4032122032205836], [19.445717773099208, -5.394362026069515, -0.4032122032205836], [19.445717773099208, -5.394362026069515, -0.4032122032205836], [19.445717773099208, -5.394362026069515, -0.4032122032205836], [19.445717773099208, -5.394362026069515, -0.4032122032205836], [19.445717773099208, -5.394362026069515, -0.4032122032205836], [19.445717773099208, -5.394362026069515, -0.4032122032205836], [17.266646712877183, -10.93963799392084, -0.3032122032205836], [17.266646712877183, -10.93963799392084, -0.3032122032205836], [17.266646712877183, -10.93963799392084, -0.3032122032205836], [17.266646712877183, -10.93963799392084, -0.3032122032205836], [17.266646712877183, -10.93963799392084, -0.3032122032205836], [17.266646712877183, -10.93963799392084, -0.3032122032205836], [17.266646712877183, -10.93963799392084, -0.3032122032205836], [17.266646712877183, -10.93963799392084, -0.3032122032205836], [17.266646712877183, -10.93963799392084, -0.3032122032205836], [17.266646712877183, -10.93963799392084, -0.3032122032205836], [17.266646712877183, -10.93963799392084, -0.3032122032205836], [17.266646712877183, -10.93963799392084, -0.3032122032205836], [17.266646712877183, -10.93963799392084, -0.3032122032205836], [17.266646712877183, -10.93963799392084, -0.3032122032205836], [17.266646712877183, -10.93963799392084, -0.3032122032205836], [17.266646712877183, -10.93963799392084, -0.3032122032205836], [17.266646712877183, -10.93963799392084, -0.3032122032205836], [17.266646712877183, -10.93963799392084, -0.3032122032205836], [17.266646712877183, -10.93963799392084, -0.3032122032205836], [18.867684888155623, -7.220239945114531, -0.20321220322058361], [18.867684888155623, -7.220239945114531, -0.20321220322058361], [18.867684888155623, -7.220239945114531, -0.20321220322058361], [18.867684888155623, -7.220239945114531, -0.20321220322058361], [18.867684888155623, -7.220239945114531, -0.20321220322058361], [18.867684888155623, -7.220239945114531, -0.20321220322058361], [18.867684888155623, -7.220239945114531, -0.20321220322058361], [18.867684888155623, -7.220239945114531, -0.20321220322058361], [18.867684888155623, -7.220239945114531, -0.20321220322058361], [18.867684888155623, -7.220239945114531, -0.20321220322058361], [18.867684888155623, -7.220239945114531, -0.20321220322058361], [18.867684888155623, -7.220239945114531, -0.20321220322058361], [18.867684888155623, -7.220239945114531, -0.20321220322058361], [18.867684888155623, -7.220239945114531, -0.20321220322058361], [18.867684888155623, -7.220239945114531, -0.20321220322058361], [18.867684888155623, -7.220239945114531, -0.20321220322058361], [18.867684888155623, -7.220239945114531, -0.20321220322058361], [18.867684888155623, -7.220239945114531, -0.20321220322058361], [18.867684888155623, -7.220239945114531, -0.20321220322058361], [18.867684888155623, -7.220239945114531, -0.20321220322058361], [18.867684888155623, -7.220239945114531, -0.20321220322058361], [18.867684888155623, -7.220239945114531, -0.20321220322058361]]